
const int8_t weights_initial_layer[31360] PROGMEM = {-34, 27, -17, 21, -18, 21, -15, -28, 29, 10, 19, 18, -31, 15, 67, 82, 35, -17, 18, 10, 26, 9, 35, -16, 30, 32, -11, -2, -15, 30, 19, 22, -54, 71, 183, 171, 145, 126, 49, -27, 2, 45, 26, 1, -25, -46, 3, 49, 69, 48, 96, 161, 12, -26, 10, 20, 3, -8, -27, 63, 8, 37, 139, 178, 283, 270, 232, 295, 265, 206, 298, 368, 239, 86, 36, -9, 111, 105, -5, 82, 170, 120, 18, -34, -34, 21, 85, 97, -48, 135, 208, 285, 225, 225, 187, 243, 253, 137, 128, 179, 166, 29, 0, 62, -19, 0, -46, -71, 103, 73, -3, 18, -25, 39, 145, 42, 56, 374, 322, 128, 185, 79, 84, 106, 134, 72, 88, 69, 74, -37, 28, 49, 10, -86, -31, -109, -142, -50, 28, 58, -23, -27, 182, 138, 202, 213, 136, 111, -10, -36, -62, -92, -78, -120, -56, 10, 64, 2, 56, 2, 21, 74, 83, 100, 29, -35, -34, 43, -1, 86, -19, 195, 244, 119, 129, -6, -122, -40, -83, -116, -142, -120, -127, 1, -35, -101, -60, -38, -4, 45, 45, -55, -64, -40, -73, 71, -8, 219, -22, 155, 345, 136, 47, 24, -70, -33, -59, -29, -57, -67, -70, -102, -96, 2, 16, 74, 58, -11, 7, -199, -277, -223, 15, 23, 3, 26, -30, 18, 283, 83, 13, 0, -88, -9, 51, 51, -41, -59, -146, -64, -94, 39, -11, 92, 34, -99, -40, -265, -516, -310, -55, -7, -30, -11, 19, 50, 174, 97, -97, -45, 21, 5, -38, -55, -172, -297, -267, -93, 24, 11, 8, 4, -43, -46, -61, -233, -536, -276, -51, 81, 27, 65, -24, 18, -30, -28, -104, -48, -29, -163, -149, -183, -335, -372, -169, 7, 36, 54, 27, 25, -64, -151, -196, -157, -252, -200, -17, 55, 17, 9, -50, -42, -84, -173, -194, -204, -254, -276, -278, -314, -325, -222, 14, 140, 85, -64, -19, 0, -150, -139, -170, -110, 32, 28, -84, 66, 4, -61, -28, -155, -272, -326, -405, -340, -304, -250, -245, -238, -73, 76, 178, 131, 56, -48, -34, -82, -45, -36, -55, -39, 279, 321, 180, 182, 82, -115, -22, -131, -364, -337, -344, -382, -250, -224, -156, -38, 246, 313, 226, 178, 106, -25, 9, -32, 45, 65, 10, 131, 324, 353, 365, 126, 22, -127, -77, -94, -132, -192, -124, -140, -68, -8, 0, 195, 368, 383, 323, 195, 63, 3, 37, 82, 46, 100, 113, 137, 226, 295, 368, 122, -27, -66, 49, 24, 53, 86, 151, 83, 100, 95, 89, 226, 354, 372, 335, 183, 104, 21, 44, 113, 40, 121, 79, 108, 232, 208, 308, 193, -4, 14, 99, 122, 158, 245, 288, 273, 172, 206, 166, 139, 189, 292, 253, 149, 109, 31, 68, 115, 43, 196, 131, 233, 330, 332, 372, 143, -16, 31, 220, 240, 263, 207, 241, 249, 210, 151, 143, 113, 34, 107, 100, 66, 58, 86, 106, 80, 83, 175, 188, 170, 184, 314, 223, -20, -20, 84, 64, 267, 191, 244, 222, 221, 109, 92, 16, -51, -27, 45, 0, 26, 156, 146, 93, 80, 54, 79, 141, 230, 287, 326, 119, 112, 52, -46, -56, 173, 102, 94, 175, 119, 42, 61, -19, -101, -131, -38, 12, 100, 163, 152, 96, 15, -19, 61, 81, 117, 101, 301, 235, 133, -20, -66, -40, 223, 108, -20, 143, 162, 59, 41, -113, -88, -50, -36, -38, 22, 59, 85, 65, 17, 68, 58, -32, 54, -3, 43, 154, -11, 94, 124, 175, 214, 97, 4, -20, 81, 54, -14, -41, -87, -55, -55, 0, 5, 27, 91, 18, 81, 16, -95, -68, 30, -53, -12, -49, -36, 130, 155, 200, 142, 97, 126, -7, -27, -10, -52, -34, -34, -122, -111, -115, -46, -52, 0, -8, -24, -8, -79, -103, -130, -148, -114, -89, 10, -12, 18, 166, 121, 143, -5, -23, -11, -27, -8, -78, -77, -67, -45, -53, -54, -83, -138, -43, -37, -33, -70, -78, -116, -177, -33, 72, 9, 0, 10, 97, -1, 13, -116, -7, -84, 31, 22, 13, 45, 50, -1, -14, -68, -67, -113, -160, -119, -149, -83, -103, -132, -20, 84, 58, 10, 26, 12, 22, -51, -129, -209, -123, -81, -44, -19, 8, -27, -7, -84, -156, -170, -159, -216, -345, -317, -274, -317, -165, -92, -61, 47, 57, -23, 13, 21, -8, -51, -117, -157, -239, -118, -177, -162, -127, -241, -304, -257, -366, -389, -279, -313, -282, -245, -319, -313, -267, -126, -114, -17, 19, -29, 14, 16, 29, 4, 44, 42, -95, -65, -120, -115, -100, -128, -162, -200, -195, -73, -9, -34, -75, -133, -85, -126, -111, 14, 25, -4, 2, -16, 
0, 29, 8, 28, -19, 32, -2, -29, 22, -2, -2, -10, -34, -23, 76, 37, -31, 1, 5, 5, -16, -33, -21, 22, 34, 34, 28, -6, 7, 5, 11, 25, -32, -31, -94, -78, -99, -53, -46, -104, -162, 11, 51, -63, 90, -58, -196, -171, -192, -139, -11, -31, 1, 31, -2, 0, 28, -4, 22, 70, -38, -106, -99, -93, -68, -6, -149, -91, 34, 115, 63, -22, 19, -57, -203, -283, -241, -172, -262, -261, -74, -15, -2, 23, -12, 10, 14, -12, -179, 31, -45, -61, 38, 120, 167, 181, 217, 230, 335, 208, 276, 191, 44, -47, -15, -162, -269, -385, -242, -59, -12, -22, -26, 86, 88, 29, -9, -38, 113, 15, 65, 170, 161, 101, 125, 206, 182, 214, 255, 204, 185, 77, 31, -111, -88, -349, -167, -15, -128, -30, 28, -13, 5, 16, -67, 18, 9, 23, 49, 49, 79, 36, 82, 98, 76, 126, 140, 97, 148, 126, 29, 8, 21, -202, -202, -246, -180, -99, -11, 106, 49, 113, -28, 42, 46, -26, 8, 114, 154, 87, 25, 88, 46, 49, 59, 127, 133, 80, 64, 118, 39, -168, -318, -452, -190, -98, 1, 185, 161, 183, 85, 32, 38, 33, 91, 116, 137, 107, 61, 118, 61, 80, 77, 95, 163, 226, 102, 98, 87, -59, -361, -380, -209, -98, -2, 100, 109, 136, 68, 14, 36, 45, 55, -18, -15, -55, -76, -121, -54, 77, 226, 196, 221, 149, 96, -9, 59, -60, -490, -410, -190, -16, 49, 77, 127, 83, -2, -32, -27, -83, -136, -162, -242, -338, -314, -358, -220, 22, 233, 239, 154, 155, 80, 12, 72, -35, -487, -275, -204, -36, 3, 63, 166, 121, -139, -145, -175, -301, -349, -403, -414, -400, -419, -332, -269, -62, 168, 244, 157, 124, 110, 78, 124, -82, -455, -162, -76, -61, -13, 34, 122, 50, -341, -379, -402, -527, -453, -365, -267, -184, -159, -195, -242, -98, 13, 87, 75, 81, 128, 98, 102, -109, -215, -91, -146, -66, 70, 46, 5, -109, -398, -505, -409, -363, -205, -203, -38, 2, 69, -61, -177, -129, -64, -3, 37, -41, 7, -33, -4, -166, -13, 85, -55, -73, 2, 9, 21, -102, -402, -325, -223, -104, -23, 29, 100, 136, 48, -36, -134, -169, -109, -20, -53, -104, -38, 13, -50, -184, 6, 159, 150, -2, -26, 31, 51, -32, -119, -39, 47, 207, 162, 98, 91, 18, -22, -57, -114, -133, -113, -9, 9, -31, -13, 12, -16, -60, 0, 114, 327, 25, 51, -8, 18, -9, 61, 179, 135, 182, 74, 93, 70, -2, -70, -127, -161, -72, -58, 44, -59, -33, -5, -18, -10, -22, 6, 97, 222, 150, 22, 81, 127, 92, 191, 138, 109, 140, 24, 91, -21, -52, -63, -117, -117, -23, 5, 90, 72, 79, -12, 9, -49, -43, -15, 90, 183, 175, 0, 61, 154, 117, 245, 64, 53, 50, 27, -18, -38, 4, 27, -38, -51, 15, 63, 69, 72, 56, -4, -61, -35, -53, -7, 130, 211, 236, 64, 62, 97, 145, 173, 75, -10, -2, 20, 57, 29, -6, -44, -43, 0, 103, 78, 66, 129, 76, 12, 1, -21, -116, -12, 151, 173, 165, -78, 71, -50, 123, 186, 116, 29, 44, 65, 62, 100, 85, 114, 172, 140, 134, 60, 47, 26, 21, -13, -19, -108, -120, -97, 75, 198, 45, 8, 126, -12, 282, 224, 135, 42, 0, -6, 53, 44, 66, 71, 99, 80, 40, -15, -23, 6, -10, -28, -16, -105, -130, -69, -17, 111, -22, 10, 127, 354, 285, 66, 40, 1, -48, -73, -58, -42, 14, 25, 39, -40, -23, -41, -46, -16, 78, 8, -53, -61, -26, -10, 52, 124, 9, -43, 23, 241, 118, 44, 64, 77, 30, -50, -78, -82, 1, -26, -6, -4, 16, -1, 10, 6, 1, 1, -40, 35, -39, -39, -81, -68, 15, 30, -21, 221, 71, 20, 10, 42, 109, -49, -39, 4, 25, -27, -52, -37, -40, -15, -3, 27, 23, -56, -36, -45, -34, -82, -34, -100, 16, 30, 1, 160, 183, 288, 34, 14, 21, -30, -48, -48, 17, -11, 65, 69, 35, -48, -51, -144, -282, -183, -57, -46, -21, 57, 5, 21, -5, 33, 16, -105, 114, 208, 66, 82, 57, 112, 154, 134, 151, 166, 141, 95, 26, -23, -12, -133, -229, -273, -224, -228, -100, -69, -100, -9, 4, -27, -3, 29, -55, -150, -250, -182, 45, 101, 90, 125, 17, 80, 84, 148, 198, 191, 129, 33, -3, -62, -74, -61, 6, -39, 45, 12, -14, -1, -3, -29, 9, 29, 58, 7, 13, 25, -25, -59, -82, -3, 94, 49, 46, 78, 61, 29, 29, 6, 27, 30, 2, 12, -9, -7, 21, 
-26, -25, -35, 14, -34, -16, 22, 26, 18, 21, -28, 13, 39, 92, 101, 28, -18, -20, 12, 16, -19, 29, 31, 20, 2, 30, -24, -15, -34, 7, 5, 26, 13, 18, 105, 125, 116, 203, 98, 133, 180, 210, 2, 59, 132, 148, 162, 144, 162, 2, 51, 36, 7, 21, 5, -10, -22, -34, -2, 38, 90, 49, 138, 192, 263, 292, 368, 357, 220, -21, -61, -64, -11, 130, 213, 63, 85, 49, -11, 36, 29, 74, 10, -32, -18, -21, -139, 106, 189, 206, 49, 130, 335, 364, 449, 471, 443, 310, 227, 202, 148, 238, 307, 236, 252, 151, 16, -77, 112, 161, 161, -9, -30, 0, -116, 64, -27, -17, 130, 149, 90, 168, 259, 299, 158, 65, 12, 79, 121, 183, 194, 112, 15, 34, 15, -18, 78, 78, 104, -50, -3, -19, -89, 128, 52, -118, -63, 22, 18, -4, 83, 17, -42, 13, -38, 12, 112, 180, 142, 122, 123, 40, 101, -17, -36, 34, 149, -48, -25, 125, -11, -60, 51, 53, -1, 42, -12, -6, -47, -91, -26, 8, 25, 28, 74, 11, 35, 5, -17, 21, 59, 40, 110, 151, 85, -30, -24, 135, 17, -19, 103, 216, 75, 23, -41, -10, -53, -7, -18, -34, 24, 35, 40, -9, 39, 30, -4, 31, 67, 93, 126, 139, 22, -9, -1, -51, 53, 20, 148, 79, 15, -38, -36, 0, 26, 19, -25, -41, -25, 9, 24, 50, -7, 31, 80, 114, 133, 180, 121, 165, 77, -20, -7, -36, 123, 9, 145, 56, -30, -87, -70, -26, -32, -10, -31, -23, -26, -21, 65, -41, 14, -38, 79, 40, 114, 125, 206, 264, 63, 21, -70, -56, 90, 103, 57, 32, -14, -117, -100, -71, -83, -40, -5, -14, -44, -91, -27, -21, -49, -85, -49, -22, -21, 113, 278, 226, 142, -53, -15, -25, -63, 23, 18, -107, -82, -227, -114, -75, -46, 45, 42, 65, -103, -86, -53, -47, -76, -91, -187, -146, -158, -114, 63, 170, 86, -69, -25, -41, -91, 11, -68, -146, -112, -130, -97, -16, 108, 164, 170, 119, 62, -71, -122, -100, -136, -109, -153, -223, -303, -362, -166, -47, 26, 0, 20, -31, -89, 81, -127, -100, -113, -25, 20, 27, 83, 120, 158, 154, 25, -94, -157, -130, -62, -105, -138, -196, -210, -168, -89, -57, 91, 111, 84, 29, -134, 6, -84, -59, -40, 58, 17, 24, 69, 65, 62, 16, 12, -83, -158, -156, -24, -99, -16, -46, -104, -19, 80, 45, 193, 94, 83, 89, -11, -17, -30, 38, 16, -7, 1, -10, 38, 52, -5, -96, -60, 0, -65, -90, -43, 9, 79, 32, 53, 126, 317, 171, 109, 95, -12, 98, 87, 192, 131, 68, -5, -94, -163, -16, 28, 21, -72, -76, -59, -45, 2, 30, 20, 117, 76, 114, 172, 281, 260, 220, 107, 222, -21, 10, 71, 220, 176, 33, 14, -66, -152, -117, -36, -94, -245, -239, -222, -106, 20, 59, 43, 72, 22, 114, 111, 107, -1, 37, -49, 101, -138, 30, -46, 240, 200, 122, 59, -37, -60, -78, -75, -146, -194, -219, -141, -22, 80, 42, -40, 78, 11, 20, 85, 132, 101, 81, -140, -19, -67, 2, -12, 176, 173, 220, 52, -2, 8, 48, 101, 50, 23, -29, -10, 42, 6, 71, 51, 13, 88, 130, 95, 121, -10, -25, 46, -83, 23, 130, 81, 287, 235, 240, 92, 121, 191, 183, 213, 244, 204, 128, 38, 100, 28, 50, 73, 18, 87, 77, 188, 115, -96, 32, -34, 2, -122, 82, 245, 216, 148, 7, 33, 81, 131, 163, 150, 248, 236, 217, 135, 28, 27, 50, 31, 4, -38, 0, 156, 116, -79, 81, 50, 33, -87, -16, 148, 230, 67, -81, 12, 82, 103, 104, 147, 251, 153, 141, 60, 70, 67, 62, 39, 41, 23, 74, 212, 114, -50, 54, 47, -4, 19, 2, 186, 372, 176, 68, 58, 96, 130, 165, 223, 156, 43, 70, 60, 61, 100, 43, 53, 4, 54, 82, 123, 149, 52, 90, -12, 31, -28, -26, -39, 241, 114, -42, 51, 22, 83, 26, -35, 19, 79, 108, 184, 146, 157, 119, 131, 33, -4, 59, 111, 97, 132, 48, 5, 9, 18, 10, 122, -16, -13, -31, -19, -22, -53, -89, -68, -115, -59, 7, -14, 80, -2, -58, -4, 66, 4, -9, 160, 114, 126, 5, 33, 5, 31, 5, 6, -21, 12, 38, -126, -162, -209, -156, -140, -82, -92, -79, -190, -201, -81, -104, -101, -116, 34, -7, 41, -67, -126, 16, 26, -29, -5, -12, 29, -13, -4, -1, -38, -27, -6, -12, 12, 34, 31, -18, -174, -138, -41, -66, -86, -109, -24, -58, -67, -22, 26, 20, 4, 17, 
-30, -25, 0, 20, -17, 16, 1, 24, 27, 34, -21, 20, 3, -25, -23, 14, -35, 18, 29, -8, 3, -13, -3, 25, -9, 32, 15, -14, 19, 19, -18, 0, 5, -7, -77, -42, -31, -37, -89, -37, -151, -155, -121, -134, -131, -161, -168, -168, -172, -126, -56, -35, 19, -13, 30, 29, -6, 33, 15, -35, -98, -57, -82, -105, -78, -61, -138, -87, -111, -157, -310, -429, -289, -273, -260, -226, -275, -277, -190, -216, -118, -60, 8, 10, 33, -32, 47, -23, 8, -70, -33, -124, -196, -209, -248, -93, -209, -331, -277, -284, -391, -235, -308, -320, -235, -261, -200, -301, -269, -45, -9, 5, 21, 4, 90, 69, -62, -144, -109, -150, -222, -323, -328, -211, -142, -132, -170, -113, -245, -211, -170, -275, -179, -130, -158, -179, -115, -120, -122, -91, 13, 18, -81, -45, -182, -185, -222, -74, -3, -95, -147, -165, -169, -106, -53, -63, -124, -205, -174, -312, -242, -165, -79, -139, -192, -183, -80, -59, -18, -75, 73, 22, -67, -21, -2, 28, -42, -101, -103, -57, -132, -44, 13, -78, -59, -42, -139, -157, -112, 11, 46, -49, -70, -119, 16, -150, 21, -102, 105, 192, -76, -7, 7, -67, -75, -17, -121, -138, -59, -24, 21, 8, 49, 31, -1, -133, -43, 34, 74, 20, -108, -116, -73, -72, 7, 83, 96, 67, -12, 40, 26, -15, -48, -72, -116, -105, -52, 24, 81, 80, 104, 91, 32, -36, 0, 52, 23, 55, 105, 23, -123, -99, 35, 155, 23, 7, -62, 8, -15, -76, -88, -105, -95, -13, 82, 180, 188, 237, 160, 194, 149, 55, -21, -64, -42, -2, 100, -43, -149, 60, 62, 100, 129, -97, -93, -72, -109, -112, -75, -95, -29, 107, 214, 263, 265, 316, 265, 170, 130, 115, -5, -58, -64, 22, 201, 163, -49, -53, 38, 94, 209, 12, -83, -229, -163, -117, 24, 4, 101, 243, 317, 305, 234, 328, 206, 169, 168, 46, -92, -66, -12, 33, 110, 132, -33, 12, 79, 81, 181, 69, -143, -307, -200, 15, 154, 136, 198, 304, 296, 209, 153, 131, 123, 145, 91, -29, -174, -200, -83, -119, -34, 55, 117, 119, 11, 73, 160, 69, -89, -222, -95, 137, 139, 180, 202, 184, 189, 45, 32, 24, 135, 185, 55, -95, -186, -200, -220, -137, 36, 57, -2, -109, 69, 111, 215, 84, -32, -122, -43, 115, 83, 197, 184, 122, 111, -31, -81, 43, 164, 265, 164, -85, -135, -152, 0, 43, 119, 63, -186, -83, 109, 36, -58, -40, -70, -51, 69, 71, 94, 77, 181, 128, 29, -149, -180, 82, 260, 350, 131, -118, -177, -82, 28, 123, -12, -62, -42, -38, 13, -111, -95, -160, -43, 18, 65, 91, 126, 76, 74, 21, 3, -101, -26, 180, 260, 257, 22, -135, -81, 0, -55, 21, -137, -212, -121, 104, -28, -29, -53, -144, -23, 93, 42, 35, 7, 11, 46, 14, -54, -32, 150, 239, 181, 129, 5, -150, -39, -49, 13, -16, -106, -116, -88, 36, 140, -34, 59, -91, 48, 92, 13, -41, -27, -116, -65, -48, -117, 30, 196, 109, 87, -92, -161, -129, -35, -26, -77, -112, -154, -155, 84, 42, -28, 145, 51, -26, 42, 39, -101, -172, -139, -274, -226, -188, -127, 27, 58, 22, -32, -168, -201, -197, -110, -95, -264, -268, -231, -107, 47, 125, -33, 116, -31, -148, -55, -23, -222, -268, -271, -244, -286, -204, -84, 0, 18, -87, -106, -128, -225, -210, -210, -219, -284, -268, -46, 156, -17, 11, 65, -61, -118, -147, -93, -76, -218, -264, -267, -200, -233, -192, -130, -57, -79, -108, -151, -238, -302, -298, -180, -187, -180, -209, 54, 149, -3, 32, 88, -32, -157, -207, -120, -186, -75, -78, -84, -68, -65, -113, -79, -117, -62, -117, -113, -116, -195, -215, -163, -67, -158, -67, 107, 54, 34, -23, 0, 28, -221, -233, -143, -100, -62, -42, 52, 13, 38, -78, -5, -97, -3, -51, 7, -6, -84, -87, -79, -45, -96, 26, -78, -66, 20, -31, -14, -25, -103, -41, -47, -17, -139, -23, 17, -46, -38, -68, -79, -53, -80, -101, -148, 15, -40, -39, -30, -73, -33, 128, -7, -22, 8, -12, 34, -3, -19, 62, 18, 25, -134, -166, -107, -83, -105, 24, -105, -35, -20, -46, -61, -45, -2, -67, 15, 50, 104, 217, 154, -29, -75, 11, -33, 3, 28, 41, 53, 39, 30, -16, -50, 20, 43, 18, -4, 49, 121, 151, 48, -13, 15, 132, 113, 125, 149, -15, 6, 101, 19, -23, -13, -18, 23, 15, 95, 138, 10, 36, 55, 61, 196, 131, 121, 219, 211, 41, 137, 258, 275, 222, 126, 132, 68, 75, -29, 24, 28, 18, 
28, 18, 8, 24, -9, 17, 33, 18, 31, -34, 30, 17, 29, 61, 82, 18, 5, -31, 6, 0, -7, -34, -13, 13, 14, 32, -17, -32, 7, 7, -30, 6, 56, 105, 99, 47, 42, 65, 98, 82, 122, 57, 35, 83, 3, -33, 136, 181, 222, 132, 138, 141, -1, 7, 26, 0, 2, -14, -3, -33, 2, 149, 102, 119, 170, 178, 152, 139, 160, 165, 263, 301, 149, 111, 161, 154, 169, 201, 242, 197, 79, 24, 3, -33, 30, 19, -79, -21, -1, -55, -3, -91, -128, -8, -64, -144, -83, 49, -23, -17, -25, -63, 21, 82, -23, 86, 140, 189, 113, -49, 87, 1, 27, -30, -101, -116, -84, -119, -198, -153, -83, -48, -80, -145, -73, -106, 6, -30, 75, 107, 92, 98, 113, 91, 23, 162, 33, 18, 110, 158, 22, -2, 101, -65, -150, -197, -167, -108, -122, -149, -173, -144, -78, -89, 7, -42, -26, 99, 140, 203, 271, 223, 176, 173, 214, 181, 176, 177, 7, -92, -77, -114, -201, -274, -276, -117, -146, -237, -237, -148, -62, -129, 1, 36, 23, 85, 124, 181, 234, 186, 119, 141, 227, 257, 55, 136, 21, -178, 32, -242, -302, -247, -311, -177, -163, -221, -235, -137, -39, 3, 6, 12, 36, -17, 100, 123, 118, 238, 225, 154, 150, 146, 62, 91, -86, -66, 25, -132, -256, -272, -179, -207, -192, -256, -161, -79, 45, 155, 70, -12, -28, -84, -72, 8, -30, 29, 30, 115, 134, 32, 78, 85, -24, -90, -61, -94, -243, -228, -156, -200, -210, -145, -37, 51, 122, 157, 39, -55, -119, -242, -243, -182, -155, -102, -95, -11, 119, 25, 38, -112, -26, -58, -147, -252, -155, -77, -82, -198, -135, -29, 78, 140, 175, 133, 79, -46, -180, -263, -235, -163, -218, -154, -189, -79, 5, -36, -2, -95, -43, -132, -73, -278, -87, 77, -37, -61, -53, 12, 129, 90, 164, 155, 137, 3, -45, -247, -205, -95, -132, -112, -177, -99, 20, 82, 61, -128, -43, -24, -86, -78, 108, 84, 48, -8, -12, 38, 32, 95, 122, 120, 70, 78, 10, -64, -99, -161, -79, -36, -104, -31, -48, -2, -21, -38, 83, -28, -91, -76, 1, 30, 36, 2, 64, 41, 36, 22, 38, 130, 192, 260, 191, -67, -117, -196, -138, -80, -149, -123, -48, -64, 88, 129, 32, -41, -96, -23, -32, -26, 92, 13, 52, 50, -48, 4, 10, 148, 248, 248, 208, -74, -171, -242, -251, -225, -179, -187, -95, 32, 213, 147, -35, -74, -107, -13, -48, 5, 109, 53, 53, -24, 0, -28, 75, 220, 236, 177, 117, -100, -196, -300, -316, -316, -293, -248, -49, 177, 134, 199, 15, -87, -82, 92, -75, 17, 44, 15, -13, 45, 71, 63, 97, 160, 210, 196, 46, -160, -241, -375, -281, -228, -86, -135, -17, 294, 275, 76, 17, -84, -34, 128, -103, -19, -63, -29, 10, 62, 123, 146, 122, 116, 203, 57, -98, -215, -232, -225, -132, -96, -24, -100, -27, 239, 132, 115, 114, -11, -71, 87, -5, -124, -89, -18, 20, 156, 141, 48, 106, 184, 126, -78, -182, -144, -149, -100, -94, -31, -35, 45, 96, 343, -15, 182, 84, -117, -44, -26, -79, -130, -120, -94, -85, 58, 115, 89, 84, 89, 6, -10, -53, -1, 7, 5, 51, 50, 41, 110, 166, 336, 263, 88, 4, -72, 1, -190, -122, -125, -117, -94, -56, -36, 64, 78, 74, 74, -27, 81, 38, 114, 81, 118, 140, 96, 91, 91, 220, 186, 136, 0, 121, 20, -96, -130, 8, -88, -89, -61, -14, 31, 82, 54, 38, 78, 86, 88, 76, 198, 176, 122, 127, 112, 109, 159, 207, 54, -74, 13, 70, 50, -84, 15, 111, 13, -106, -120, -41, -6, 2, -4, 25, 79, 97, 98, 137, 162, 209, 116, 170, 177, 37, 88, 58, -12, -106, 19, 20, -35, -2, -137, -43, -70, -107, -240, -126, -151, -136, -101, 18, -40, 18, 69, 145, 73, 185, 207, 197, 191, 230, 167, 69, -25, -127, 18, -17, -7, -49, -211, -295, -212, -236, -218, -156, -113, -161, -117, -158, -127, -59, 52, 60, 1, 147, 97, 49, 88, 73, 146, 160, 167, 80, 24, 0, -30, 27, -52, -209, -213, -198, -182, -173, -211, -158, -103, -102, -126, -61, -41, 26, -8, -10, -112, -25, -12, -101, -97, -65, 87, 94, -6, 6, 14, -13, 50, 150, 89, 96, 162, 160, 88, 71, 176, 296, 107, 172, 53, 70, 60, 7, -68, -45, -46, -36, 71, 46, 13, -27, 14, -30, 11, 3, -32, -59, -90, -84, -102, -129, -16, -13, 155, 151, 128, 226, 119, 121, 80, 66, 12, 4, -90, -103, 2, 23, -4, -31, 7, 
9, 31, -20, 30, -28, -17, -22, -24, -18, 5, 23, -17, -101, -82, -31, -34, 17, -11, 9, 22, 3, -15, -34, 15, 22, 23, -35, -32, 32, -22, 20, -13, -33, -90, -236, -235, -170, -200, -236, -106, -82, -191, -268, 21, 33, -64, -162, -68, -135, -94, -163, -140, 18, -8, -7, -18, -4, -27, 11, 94, 84, -120, -205, -291, -325, -356, -382, -380, -404, -347, -417, -340, -201, -212, -263, -260, -321, -167, -104, -204, -68, 0, 13, -9, -30, -12, 12, 55, 31, -168, -253, -293, -251, -165, -339, -316, -286, -448, -551, -380, -317, -287, -372, -366, -179, -312, -258, -121, 65, 29, -21, 17, 33, 10, -111, 65, -162, -330, -301, -233, -429, -358, -352, -381, -374, -435, -401, -314, -396, -297, -161, -241, -268, -130, -76, -10, 202, 169, 116, 24, 14, -7, -168, -3, -109, -121, -162, -152, -120, -137, -128, -110, -128, -117, -231, -282, -251, -200, -80, -134, -73, -15, 4, 5, 162, 240, 127, 18, 2, -78, 126, 172, -38, -93, -53, -85, 119, 126, 97, 93, 23, 72, 88, 17, -2, 67, 157, 121, 40, 119, 21, -144, -42, 92, -7, -11, 43, -56, 172, 153, -120, -137, 79, 49, 158, 154, 97, 174, 210, 226, 187, 155, 172, 153, 119, 128, 119, 28, -84, -185, -186, -45, -95, 3, -22, 119, 24, -29, -110, 0, 55, 29, 201, 84, 166, 167, 163, 113, 191, 142, 111, 70, 49, 4, 6, -12, -50, -124, -224, -202, -201, -37, 86, 83, -26, 52, 26, 90, 151, 142, 162, 138, 244, 183, 220, 199, 222, 178, 43, 9, 7, -74, -66, -82, -88, -104, -166, -186, -223, 115, 22, 76, 50, 89, -28, 167, 271, 158, 132, 156, 163, 221, 135, 131, 168, 72, 22, -63, -30, -52, -69, -6, -42, -108, -222, -148, 20, 71, 66, 56, 182, -10, 59, 127, 184, 111, 154, 86, 85, 75, -9, 27, 33, 0, 16, 8, 32, -20, 26, 32, 55, -63, -203, -83, -5, -60, 49, 68, 153, 20, 168, 88, 125, 65, 80, -8, -11, -159, -237, -122, 21, 21, -48, 36, 44, 58, 66, 21, 52, 33, -246, 6, 139, 3, -96, -39, 97, 102, 173, 61, 57, 83, -5, -101, -123, -137, -147, -9, 32, -66, -94, -51, 0, 112, 142, 128, 112, 96, 168, 157, 209, 137, -101, -52, 144, 120, 84, -51, 31, 81, 57, -28, -58, -78, -18, 40, -8, -41, -140, -87, 60, 181, 269, 239, 196, 187, 204, 211, 407, 111, -72, -85, -211, -78, 86, 67, 47, 89, 48, 6, 101, 56, -14, -1, -109, -77, -102, 0, 123, 212, 267, 284, 128, 143, 152, 95, 184, 193, 29, -59, -104, -105, 113, 39, 9, 79, 135, 86, 113, 156, 117, -26, -111, -90, -99, 66, 210, 216, 235, 211, 96, 28, 103, 89, 294, 241, 29, -63, -170, -144, 20, 0, -35, 36, 93, 76, 63, 60, 35, -66, -124, -61, -18, 169, 206, 94, 93, 93, 145, -19, 58, 253, 255, 216, 77, -22, -173, -197, -52, -66, -95, -62, -87, -100, -90, -112, -266, -219, -105, -27, 14, 176, 134, 172, 88, 72, 101, -18, 87, 145, 168, 120, -13, 199, -30, -78, 50, -155, -224, -251, -203, -291, -259, -211, -196, -189, -84, -13, 1, 47, 41, 82, 50, -9, -87, -101, 63, 182, 182, -64, -19, 89, -58, -75, 70, -37, -173, -273, -268, -325, -319, -258, -125, -65, -39, -62, 12, -27, -104, 32, -42, -159, -123, -68, 192, 216, 225, 39, -4, -116, -94, -126, -105, -124, -191, -286, -256, -275, -138, -110, 41, -22, -84, -89, 0, -143, -129, -163, -171, -208, -187, -60, 189, 109, -14, 35, 32, -86, -125, -175, -254, -201, -184, -199, -100, -25, 60, 56, 91, 14, -19, -82, -35, -125, -163, -249, -199, -229, -97, -54, 166, 15, -138, 17, 4, -12, -174, -158, -127, -92, -53, -54, -16, 20, 150, 150, 51, -4, -13, -78, -110, -84, -182, -151, -130, -172, -8, 3, 249, 45, -134, 12, 22, -10, 62, -76, -34, 91, 8, 41, 53, 26, 56, -39, -88, -50, -129, -87, -124, 20, -20, -13, 46, 67, 103, 135, 229, -4, -27, 35, 11, 21, -9, 82, 62, 102, 45, 37, 102, 106, 33, 70, 94, 48, 70, -14, 50, 73, 87, 136, 196, 243, 105, 26, 109, 31, -32, -13, 23, 1, 21, 48, 54, 38, 89, 196, 151, 333, 337, 220, 227, 321, 449, 333, 353, 269, 284, 366, 432, 330, 291, 136, 53, 52, 30, -27, -18, -14, 21, -4, 93, 116, 64, 95, 150, 189, 146, 120, 147, 252, 317, 178, 242, 292, 342, 237, 219, 154, 207, 104, -21, -18, -6, -12, 
-6, 7, 35, -26, -2, 11, 20, -18, 14, -5, 35, -11, -25, -25, -17, -27, -20, 19, -15, -12, 10, 0, 15, -15, 33, -2, -14, -23, 3, -31, 27, -13, -20, 0, -15, -27, -32, 27, -13, 16, -20, 19, 26, 26, -11, 21, -29, -13, -16, -12, 14, 21, -29, 24, -27, -19, 19, 13, -24, -35, -34, -28, 18, -22, 18, -25, 7, -12, -19, 11, -15, 4, 10, 2, 3, 27, 0, -27, 10, 0, 30, -30, 6, 34, -8, 17, -4, -34, -35, -28, 16, 4, -31, 26, 14, -24, -25, -14, -15, -13, 10, 9, -22, -40, 10, 13, 27, -21, 30, -30, -34, 31, -8, -4, 24, -21, -18, -6, 8, -32, -24, 21, -31, -16, -44, 2, -7, 19, -10, 19, 16, 10, -30, -44, -43, -9, 18, 25, -32, -29, -25, 24, 30, 8, -15, 26, 15, -5, -35, -10, -6, -24, -27, -13, -30, -43, 21, -20, -28, -34, 12, -43, -5, -44, -32, -16, 15, -17, 19, 9, 12, -12, -17, 2, 9, -39, 18, 6, -45, -23, 21, 1, 4, -25, 2, -10, -32, 8, -10, -21, 7, 7, 22, -26, 10, -28, 34, -14, 20, -4, -5, -27, -1, -19, 24, -23, -16, -45, -10, -13, -39, -20, -3, -11, -34, 7, -29, 14, 11, -6, -9, -1, -8, -11, 31, 20, -7, 0, -7, 2, 2, -44, -12, -29, -13, -15, 1, 8, -10, 25, 3, -18, -10, 23, -21, -12, -4, -2, -1, 27, -5, 34, 21, -24, 10, -18, -31, -42, -25, 1, 0, -20, 4, 1, -18, -8, 18, -39, -13, -11, 21, -10, -21, 14, -29, -42, 8, -31, 0, -7, -17, 17, -11, 12, -15, -26, -43, -24, -27, -16, -31, -39, -44, 19, 4, 6, -40, -42, -38, 6, -25, -14, 24, 5, -21, 12, -30, 10, -2, -24, 9, -2, 0, -24, -44, -2, 7, -4, 7, -15, -13, -14, -10, 11, -39, -21, -43, 7, -17, -12, -33, 0, 9, -36, 13, -10, -18, 24, -20, -9, 0, -8, -1, 10, 12, -25, -32, -8, -42, 1, -9, -3, -33, 11, 21, -38, 13, -23, -6, -4, 10, 6, -22, -30, -11, 9, -6, -28, -21, 8, -7, -17, -24, -4, -43, -22, -23, -4, 5, -27, -31, 22, 0, -12, 0, -36, -30, -15, -26, -19, -12, -18, 31, 5, 28, 5, -35, -38, -43, -4, 11, 11, -36, 10, -40, -42, -30, 9, -2, 11, 7, 3, -35, -9, 9, -8, 20, 23, 31, 17, 10, -23, -26, 14, 11, 0, 0, -2, -19, 21, 4, 18, 6, 19, 11, -32, -14, 4, 3, -5, 2, -13, 5, -22, -18, 29, -1, 11, 15, 28, 8, -40, 25, 18, 15, -37, -1, -25, 24, -14, 4, -7, 19, 5, 17, -23, 23, -8, -4, -40, 11, 11, -30, -29, -3, 17, 29, -1, -29, -9, -11, -2, -1, -7, -37, -42, -24, 22, -46, 14, 13, 22, -6, -46, -46, 13, -16, -28, -19, -31, -6, 3, 30, 18, 2, 34, -34, -20, 22, -16, -11, -43, -8, 21, -39, -4, -18, -39, 11, -39, -28, 12, -42, 13, -5, -42, 0, -15, 21, 12, 7, 31, -29, -31, -11, -15, 1, -10, 17, -21, -38, -39, -39, 23, 11, -16, -10, -27, 20, -4, -6, 4, -32, 23, 19, -1, -10, -7, -4, 22, -33, 25, 15, -25, -17, -20, -31, 24, 17, 18, -46, -9, -4, 20, 5, -41, -7, -23, -41, 23, 7, 10, 4, 5, -33, -19, 0, -1, -22, 7, 2, 8, -7, -8, -30, -18, -16, 14, -4, 10, -14, -31, -33, -28, 3, -37, -9, 13, -13, 19, -1, -29, 25, -6, -1, 32, -12, 32, -10, -5, -30, -38, -35, 9, 0, -20, -7, 22, 7, -27, -17, -30, -22, 28, 6, -12, -9, -17, -1, -4, -35, -20, 6, 3, -1, 22, -30, 7, -14, 0, -24, -7, 23, 28, 18, -20, 0, -16, -16, -6, -24, 8, 31, -20, -14, -2, 25, 0, -4, -6, 9, -21, 31, 29, 27, -12, 31, -11, -8, -21, -4, -45, -28, -33, 12, -27, -37, -20, 28, -22, 16, -29, -33, 11, -33, 20, 14, -23, 15, 20, 1, 0, 5, -17, 18, -28, -39, 14, 18, -34, 14, -37, -6, -13, 0, 33, -10, -7, 2, 9, -18, -7, 10, 35, -1, -27, -23, 34, 0, -26, -31, 12, 19, 10, -4, -14, -34, 9, 10, -26, 23, 11, 34, 12, 25, 41, -12, -33, -35, -8, -31, -3, -4, -4, -25, 8, 29, 10, 0, 27, 5, 1, 9, -20, -33, -26, -2, 26, 15, 29, 16, 0, 9, -29, -18, -2, -27, 22, -32, 30, -27, 12, 6, 33, 
0, -6, 9, -29, 31, 33, 16, -35, -33, -23, 5, 1, 90, 57, 81, -10, 24, 18, 34, 24, 0, -30, -16, -20, -11, -27, -7, -35, 32, 13, 14, 4, 45, 84, 197, 194, 175, 228, 125, 129, 185, 94, -7, 37, 64, 58, 163, 183, 227, 87, 125, 116, -16, 16, 22, -13, 20, 1, 43, -66, 17, 150, 193, 272, 291, 279, 359, 460, 349, 161, 191, 178, 164, 237, 299, 181, 214, 174, 166, 231, 16, -48, 3, 10, 2, -16, -59, -36, 112, 154, 285, 228, 251, 346, 332, 341, 264, 253, 157, 207, 93, 32, 222, 165, 88, 152, 192, 240, 178, -30, 72, -25, -4, 31, -58, -11, 98, 217, 137, 71, 226, 243, 252, 177, 200, 129, 184, 158, 144, 92, 98, 53, 4, 1, -49, -27, -46, 143, 170, 136, 1, -33, 128, -44, 189, -7, 18, 23, 31, 112, 70, 41, 101, 42, 44, -8, 76, 50, -26, 20, 35, -24, -74, -32, 106, 300, 232, 164, 0, 87, -2, 11, 141, 28, 11, 68, 53, 69, -14, -5, 22, 3, -23, 26, -1, -106, -152, -117, -110, -133, -133, 41, 185, 329, 115, 186, -4, 142, -73, -94, 319, 164, -3, 83, 137, 22, 7, -63, -21, -14, -11, 31, -90, -174, -126, -143, -128, -111, -54, -32, 122, 237, 88, 205, -94, -37, -30, 26, 286, 107, 55, 128, 72, -11, 29, -9, 44, 95, -4, -95, -57, -127, -128, -90, -48, -34, -26, -2, 70, 108, 203, 171, -99, -96, -15, 50, 206, 36, 36, 80, 47, -29, -84, -19, 29, 68, 42, -77, -110, -123, -102, -12, 15, 76, 35, 36, 40, 214, 216, -63, -28, -166, -116, 55, 221, 71, 58, 47, -18, -52, 15, 30, 124, 124, 160, 3, -75, -82, -65, 23, -2, 27, -30, 113, 70, 65, 229, 0, -121, -146, -52, 115, 252, 150, 7, 20, -42, 5, -19, 89, 126, 231, 240, 1, -34, -75, -56, 3, -29, -54, 35, 127, 223, 248, 255, 29, -54, -60, -116, 92, 65, 73, -69, -86, -131, 9, 18, 131, 176, 251, 204, 123, 112, 38, -22, -77, -19, 34, 7, 64, 144, 250, 96, -66, -87, -99, -135, -5, -174, -14, -106, -180, -91, -15, 7, 100, 168, 229, 172, 187, 146, 13, -4, -74, -55, -45, -69, 79, 170, 118, 148, 168, 70, 75, -94, 9, -326, -173, -48, -174, -122, -32, 81, 154, 117, 195, 256, 221, 160, -53, -65, -66, -87, -55, -57, 51, 33, 84, 15, 45, 70, 115, 110, 56, -258, -115, 2, -132, -107, -23, -22, 52, 98, 285, 334, 191, 135, -65, -55, 22, -72, -18, -38, 39, 116, 170, -106, 16, -46, 131, 145, 181, -127, -120, -5, -165, -164, -59, 41, 86, 131, 215, 246, 120, 49, -10, -40, -48, -95, 30, 19, 130, 193, 257, 31, -128, 13, 86, 165, 245, -65, -70, -28, -133, -85, -36, 0, 41, 23, 109, 128, 63, 37, -40, -38, 29, -24, 38, 8, 108, 128, 5, -53, -61, -196, 39, -5, 245, 9, -6, 37, -70, -88, -40, -41, 13, 53, 190, 88, 124, 30, 10, 13, -15, -48, -50, 16, 101, 105, 84, -136, 97, -24, -54, -103, -51, -8, 61, -18, -2, -67, 26, 31, 22, 44, 131, 138, 196, 72, 57, -3, 17, -32, 53, 92, 191, -22, -104, -87, -39, -18, -71, -133, -17, -28, -19, 65, 104, 63, 95, 50, 33, 94, 162, 175, 155, 28, -27, 33, 27, 121, 43, 96, 135, -139, -165, -47, -68, -128, 125, 149, 61, 35, -93, 78, 121, 52, 68, 70, 89, 134, 272, 231, 142, 64, 74, 107, 78, 23, -93, 52, -37, -269, -145, -112, -21, -93, 35, 88, 159, 115, -17, -34, 67, -22, 23, 57, 138, 141, 195, 135, 80, 58, -6, 34, 3, -22, -74, -114, -83, -161, -78, -121, 9, -18, -30, 192, 332, 170, -35, -47, -29, -11, -7, -37, 42, 76, 101, 53, 89, 48, -5, 61, 81, 23, -59, 6, 45, -111, -69, -101, -18, -5, -23, -23, 75, -33, -190, -32, -38, -4, 73, 34, 92, 98, 115, 122, 102, 112, -1, 31, 99, -12, -5, -12, -54, 19, 45, 20, -3, -9, 8, 36, -189, -234, -214, 53, 38, 12, 66, 150, 119, 203, 207, 204, 193, 177, 157, 76, 124, 52, -30, -16, -21, 48, 27, 17, -12, -16, -21, -18, -76, -144, -127, -175, -77, -26, -120, -124, -21, -27, -66, -141, -160, -75, -35, -47, -108, -56, -96, -38, -19, -46, -47, -13, 15, 14, -20, -1, -27, 25, 55, -133, -123, -120, -140, -137, -32, -55, -76, -323, -251, -237, -399, -204, -244, -174, -155, -109, -3, 3, -1, -5, -9, 
10, -33, 28, 24, 27, -17, -31, 24, 33, 19, 28, 17, -42, -62, 98, 64, -32, 31, -18, 21, 23, -22, 3, 10, 7, 28, -18, -16, -5, -14, -3, -3, -31, -64, -60, -62, -86, -111, -55, -170, -215, -101, 66, 61, -41, -149, -188, -176, -178, -117, -26, 71, -31, -9, -35, -17, -13, -8, -7, -108, -91, -111, -163, -103, -95, 4, -23, -82, -79, -22, -102, -10, 10, -64, 12, -96, -43, -181, -212, -160, 39, 81, -20, 20, -12, -4, 95, -17, -7, 50, 60, 65, 99, 74, 65, 51, 116, -5, -97, -13, -34, -14, 38, -40, 43, -21, -99, -22, -56, 58, -32, 25, -29, 42, 111, 141, 0, 139, 148, 46, 166, 181, 224, 221, 285, 160, 202, 175, 67, 34, 52, 3, -52, -93, -122, -178, -3, 97, 101, -40, -20, 6, 177, 69, 72, 22, -39, -28, -91, -32, 54, 240, 279, 224, 95, 74, 39, 37, 8, 41, 57, -18, -141, -251, -140, 27, 16, -90, -29, -21, -40, -79, -91, -242, -131, -108, -34, 32, 154, 176, 208, 207, 171, 124, 128, 72, 91, 59, 77, -54, -105, -114, -74, 66, -42, -5, 5, -135, -139, -119, -77, -167, -149, -151, -42, -62, 16, 33, 165, 152, 158, 132, 127, 10, -2, 39, 15, 5, -39, -74, -123, -26, -102, -39, -49, -91, -137, -115, -56, -155, -94, -130, -90, -117, 0, -38, 25, 127, 156, 121, 108, 21, 34, 67, 0, 44, 59, -39, 20, 63, 119, 146, -40, -136, -110, -44, -117, -123, -30, -74, -29, -61, 23, 40, 47, 74, 163, 162, 54, 21, 17, 37, 74, 47, 99, 53, 51, 177, 209, -104, -54, -45, -242, -22, -8, -74, 25, -54, -21, -69, 15, 89, 84, 81, 219, 69, 27, -32, 28, 60, 47, -26, 0, 104, 75, 115, 213, 14, -34, -135, -238, -52, 22, 82, 4, -31, 37, -17, 4, 13, -10, 141, 264, 119, 44, 73, 5, 63, 79, -31, 46, 114, 188, 288, 295, -10, -102, -115, -185, -22, 114, 93, 47, -23, -54, 1, -16, -68, -51, 204, 307, 156, 44, 29, 24, 91, 33, 70, 7, 121, 17, 78, 129, -55, 80, -108, -254, 24, 128, -3, -48, -12, -27, -28, -109, -89, 40, 245, 272, 170, 100, 37, -21, 63, 35, -60, -65, -89, -206, -93, 87, 123, -83, 9, -253, 66, 33, -83, 13, -15, -15, -54, -98, -69, 69, 212, 198, 178, 127, 0, -54, -84, -33, -45, -153, -289, -291, -68, 238, 9, -90, 118, -145, 55, 73, -4, 62, -80, -10, -24, -60, 25, 45, 154, 185, 100, 89, -65, -59, -72, -68, -201, -206, -276, -207, 4, 52, 106, -63, 145, 81, 136, 148, 29, 72, -62, -62, -53, 39, 57, 42, 92, 45, -34, 19, -56, -82, -115, -129, -219, -109, -81, -46, 13, 31, 134, -5, 78, -23, 161, 69, 55, 85, 20, -3, -39, -27, -6, 37, 0, -40, -41, -32, -34, -144, -59, -73, -110, -171, -74, -143, -219, -55, 192, -44, 26, -66, 98, 37, 88, 178, 55, 40, 16, 77, -43, -119, -61, 7, 7, -31, -22, 22, 78, 25, 29, 30, 32, -41, -56, -89, 151, 26, -122, -172, -67, -28, 132, 139, 81, 62, 24, 70, -127, -89, -10, -49, 22, 83, 74, 145, 211, 119, 63, 149, 177, 6, 135, 36, 111, -7, -70, -172, -22, 53, 200, 262, 197, 82, 56, 2, -118, -201, -35, -4, -3, 51, 109, 214, 174, 231, 125, 163, 183, 9, 52, -11, -11, 54, 61, 22, 119, 150, 169, 273, 172, 108, 49, -25, -101, -99, -13, 37, 62, 60, 80, 146, 201, 167, 126, 60, 118, 70, 137, -113, 15, 21, 71, 5, 147, 162, 89, 132, 74, 91, 4, -39, -16, -11, 9, 72, 23, 48, 115, 177, 97, 133, 58, 90, 131, 49, 55, -90, 28, 24, -27, 77, 270, -17, -71, -104, -100, 110, -51, -37, -19, -25, 70, -2, -31, 33, 79, 146, 129, 184, 121, 173, 236, 105, 25, -77, -19, 18, -20, -11, 26, -62, -195, -73, 9, 21, 6, 36, -10, 47, 3, -24, -4, 70, 72, 139, 131, 177, 87, 148, 252, 47, -70, -40, -7, 8, -19, 106, -213, -202, 9, 55, 104, 126, 37, 72, 27, 108, 102, 133, 65, 117, 145, 173, 184, 196, 146, -10, 36, -26, -6, -37, 33, -16, -8, -15, 93, 208, 240, 232, 201, 115, 165, 127, 153, 188, 136, 235, 76, 107, 186, 159, 51, 130, 81, -2, 86, 79, -74, 15, 13, -15, -23, -14, -10, -89, -146, 74, 48, 42, 0, -64, 90, 89, -118, 42, 42, 1, -56, 13, 40, 41, -36, -23, -121, 33, -12, 17, 13, 
33, 5, -5, -20, -8, 6, 23, -9, 31, 11, -29, 8, -18, -36, 22, 40, 17, -18, -13, -7, -9, -13, -3, -8, 2, 28, -6, -22, -11, -2, 4, 32, -81, -82, -163, -154, -142, -87, -108, -201, -258, -130, 83, -50, -82, -189, -282, -183, -247, -142, -119, -154, 29, -18, -27, 12, -3, 1, -21, -150, -96, -127, -185, -231, -176, -177, -188, -234, -231, -181, -158, -108, -55, -96, -52, -105, -89, -112, -193, -207, 22, 75, 28, -12, -11, 32, 96, -101, -65, -9, -1, -59, -202, -169, -226, -216, -159, -232, -209, -145, -64, -63, -1, 2, 54, 29, -18, -36, -52, 52, -64, 14, -28, -1, 130, 131, -94, -6, 102, -35, -82, -88, -6, 0, 120, 83, 123, 84, 68, 11, 50, 26, -17, 32, -25, 3, 163, 175, 102, -108, -1, 18, 8, 112, -118, 90, 1, 18, -85, 31, 1, 205, 221, 102, 62, 80, 177, 100, 3, 29, 95, 61, 65, -29, -1, 142, -23, -57, -6, 63, -39, 148, -68, 40, 36, -2, 49, 127, 159, 100, 153, 96, 3, 36, 68, 87, 16, 39, 67, 3, 25, 99, 66, 184, 72, -2, -3, 164, 32, 118, 1, -34, 75, 55, 170, 121, 100, -2, 47, 32, 0, -2, 81, 0, 27, 2, 20, 11, 77, 116, 82, 155, 55, -66, -107, 37, -12, 111, 30, 22, 136, 116, 87, 53, 87, 38, 77, 82, 17, -7, 0, 5, 96, 68, 0, 60, 138, 238, 255, 406, 296, 169, 28, 9, 9, 142, -6, 52, 144, 48, 84, 42, 114, 117, 74, 63, 52, 40, 71, 36, 36, 70, 0, 86, 162, 158, 212, 459, 493, 21, -11, 55, 8, 70, 120, 47, 96, 35, 48, 81, 93, 91, 128, 81, 75, 88, 20, -3, 4, 88, 10, 57, 50, 36, 147, 315, 488, 109, 17, -87, 97, 233, 154, 59, 36, 6, 19, 9, 9, 49, 84, 13, 128, 196, 32, -11, 65, 34, -7, -128, -74, -125, 31, 184, 366, 54, 24, 34, 86, 265, 95, 11, -162, -127, -60, -48, -44, -38, 36, 111, 200, 205, 27, 55, 21, 143, 97, -53, -141, -205, -130, 172, 341, 108, -22, 25, 90, 131, -73, -153, -194, -146, -113, -77, -79, -11, 87, 164, 208, 187, 58, 93, 102, 40, 130, -71, -160, -164, -63, 133, 359, 98, 38, -57, 105, 101, 12, -291, -173, -179, -151, -162, -113, -50, 18, 160, 230, 146, 127, 215, 119, 49, -12, -117, -133, -154, -80, 99, 327, 72, 91, -19, 186, 179, 40, -178, -121, -184, -104, -120, -173, -118, -39, 104, 179, 116, 203, 154, 50, -1, -72, -144, -67, -99, -48, 32, 330, 152, 7, 50, 122, 263, 61, -124, -57, -135, -138, -141, -172, -174, 21, 105, 141, 165, 176, 181, 26, -51, -100, -38, 3, 8, 20, 55, 377, 180, -14, 49, 168, 252, 127, 46, 89, 21, -13, -74, -145, -137, -23, 110, 80, 178, 181, 76, -60, -72, -15, 19, 1, 48, 33, -10, 261, -11, 45, 7, 82, 180, 179, 210, 180, 95, 3, -32, -39, -45, -8, 82, 125, 74, 36, -50, -80, 11, -25, -1, 21, 53, 104, -17, 128, 101, 10, -10, -100, -52, 106, 203, 154, 89, 95, -9, -50, -135, -163, 19, -29, 11, 39, -15, -10, -44, -24, -21, 15, 144, 117, 174, 227, 31, 29, -94, -16, 9, 43, 117, 212, 73, 89, -29, -110, -110, -164, -89, -138, -9, 4, 23, -19, 0, 18, 48, 62, 159, 95, 118, 92, 10, -66, 5, 127, 60, 109, 152, 196, 121, 34, 37, -66, -71, -150, -96, -116, -35, -32, 4, -25, 22, 30, 85, 44, 99, 28, 18, -140, -33, -49, 9, 110, 158, 197, 100, 168, 151, 49, 55, -39, 55, -80, -45, -60, -48, -51, -38, 68, 37, 60, 68, 89, 97, 201, 118, -129, -25, -18, -3, 199, 219, 224, 43, 2, 81, 79, 92, 56, 43, -26, -30, -35, -51, 52, -9, 16, 35, 70, 100, 173, 242, 93, 104, -20, 12, -15, 35, 98, 2, -86, -175, -22, 6, 95, 78, 131, 142, 90, 61, 78, 3, 36, -32, 69, 302, 229, 194, 166, 161, 102, 71, -15, 11, -17, 32, -72, -200, -165, -189, 55, 99, 86, 189, 314, 293, 289, 324, 374, 433, 390, 345, 295, 226, 89, 8, -11, 8, 88, -14, 6, 31, -13, 30, -21, -87, -218, -105, -109, 37, 102, 41, 17, 48, 38, 96, -4, 38, -12, 111, 57, -12, -54, 11, 37, -12, -110, 50, 27, 30, -3, 1, 13, -29, 108, 73, -55, -52, -29, 15, -70, -13, -29, 61, 7, 30, 14, 23, -76, -49, -20, 27, 16, 101, 25, 27, 10, 29, 
-18, -17, -25, 35, 32, 14, -35, -15, -9, 27, 19, 8, 20, 17, -26, 17, -12, 9, -20, 6, -16, 0, 21, -31, 22, 13, -29, -33, -34, 23, -16, -22, 2, -15, 13, -27, 9, -23, 0, 6, -110, -30, 73, 80, 30, -22, -2, -40, -10, -39, 25, 29, 35, -29, 20, 2, -6, 11, 0, 97, -25, -10, -8, -20, -134, -228, -182, -191, -133, -38, 81, 206, 263, 134, 175, 154, 62, 42, -2, 13, 3, -33, -6, -26, 7, -20, 49, 91, 93, 17, 18, 47, 84, 7, -121, -157, 27, 20, 86, 135, 101, 71, 58, 93, 121, 154, 57, 10, 107, -50, 0, -2, 17, 77, 0, 144, 142, 146, 194, 142, 68, 12, -2, 125, 92, 120, 109, 158, 47, 34, 80, -1, -33, 100, 91, 10, 107, 124, 87, -23, 1, 8, -9, 32, 62, 218, 114, 2, 3, 22, 61, 99, 140, 135, 88, 138, 75, 20, -1, -6, -6, -43, 71, 65, 23, 202, 107, -36, 32, 65, -48, -38, 93, 6, -36, -48, 29, 51, 90, 137, 127, 98, 73, 45, 86, 33, 26, -5, 3, -31, 47, 64, 152, 345, 268, 174, -20, 119, -178, -110, -60, -55, -24, -48, -8, -66, 0, 62, 57, 77, 158, 77, 83, 53, 8, 16, 117, 74, 33, 46, 143, 372, 199, 191, 28, -36, -247, -163, -101, -49, 11, -83, -48, -24, -38, 11, 47, 7, 111, 40, -6, -45, -91, -65, -72, 2, 11, -29, 69, 281, 209, 26, -103, 5, -289, -64, -27, -131, -22, 0, 4, 11, -24, 30, 31, 33, 2, -52, -244, -300, -252, -285, -222, -112, -13, -70, 51, 258, 195, 59, -60, -4, -197, 101, -13, -66, -71, -64, 101, -18, -19, 29, 26, 106, 65, -107, -219, -238, -259, -278, -336, -293, -281, -385, -137, 51, 95, 56, -37, -123, -127, 22, 56, -57, -106, -13, -21, -86, -5, 69, 135, 194, 100, 5, -9, 32, -3, -123, -126, -171, -391, -439, -382, -87, 54, 108, 11, -75, -166, -52, 14, -74, -59, 21, 11, 19, 130, 191, 141, 92, 78, 4, 14, 2, 39, -33, 27, -58, -321, -420, -480, -159, 11, 141, 113, -85, -135, 29, -18, -42, -112, 15, 86, 80, 92, 104, 103, 94, 103, 58, 34, -8, -42, -26, -5, -2, -90, -179, -286, -216, -33, -59, 62, 60, -65, 39, -139, -221, -179, -70, -34, 103, 105, 44, 55, 67, 144, 102, -2, -80, -114, -87, -25, -31, -7, 58, 0, -109, -162, -66, 106, 57, 191, -52, -340, -465, -423, -470, -338, -92, 35, 146, 158, 109, 66, 4, -48, -72, -27, -42, -2, 66, 78, 159, 58, -104, -16, -116, -34, 136, 175, 32, -299, -419, -592, -746, -734, -557, -309, -52, -45, -48, 11, -102, -71, -72, 50, -18, -6, 44, 123, 112, 187, -218, -123, -59, 2, 88, 75, 203, -156, -336, -449, -597, -782, -850, -789, -666, -626, -390, -98, -70, -116, -98, -28, -65, -13, 80, 49, 70, -12, -218, -127, -110, 37, -10, 114, 381, 69, -147, -166, -306, -428, -671, -738, -755, -726, -418, -28, 28, -73, -19, -38, 3, 31, 134, 47, -109, -65, -74, -71, -85, -12, -120, 128, 373, 158, 44, 24, -27, -77, -171, -312, -393, -412, -88, 44, 96, 72, 15, 16, 30, 71, 127, 30, 39, 6, 36, -37, -56, 18, 12, 50, 238, 177, 156, 177, 120, 217, 139, 110, 39, -3, 107, 114, 81, 161, 137, 167, 82, 41, 37, 62, 28, 17, 34, 12, -4, 47, 33, -64, 119, 294, 248, 222, 324, 335, 282, 253, 234, 180, 105, 104, 145, 63, 35, 73, 25, 53, 98, -21, -63, -93, -197, -8, 33, 60, 44, -61, 183, 261, 196, 105, 122, 223, 164, 241, 182, 154, 99, 89, 82, 39, 71, 71, 75, 63, -7, -77, -78, -255, -191, 57, -11, 17, 20, 138, 321, 325, 207, 85, 43, 67, 137, 194, 175, 157, 89, 134, 65, 84, 92, -46, -95, -85, -108, -183, -149, -158, -169, 156, 7, 12, 7, 19, 191, 212, 214, 139, 200, 129, 166, 209, 56, 56, 63, 30, 26, -13, 51, -112, -258, -130, -37, -159, -90, -216, -84, 75, -22, -26, 13, 134, 119, 109, 291, 331, 458, 311, 230, 213, 143, 176, 116, 47, 81, 65, -78, -133, -135, -18, 16, 32, 68, -38, 29, 26, 8, 21, 11, 7, 42, 188, 198, 254, 218, 61, 164, 230, 145, 117, 64, 162, 174, 119, 164, 14, 30, 232, 168, 139, 91, -32, -6, 7, 0, -9, 6, 12, -5, 21, 22, -36, -89, -34, -53, -46, -86, -99, -9, 251, 159, 52, -57, -71, -45, -74, -63, -49, -1, 16, -23, 24, -31, 
-23, 6, -20, -3, -32, -31, 15, -3, -31, 23, 33, -10, 101, 72, 85, 56, 30, -27, 20, -29, 6, -25, -25, 28, -34, 29, -19, 19, 15, -31, -26, -21, 96, 78, 137, 166, 118, 204, 158, 185, 314, 216, 45, 319, 199, 198, 220, 170, 203, 93, 123, 99, 6, 35, 11, -1, 22, -14, 37, 77, 160, 135, 270, 318, 344, 318, 348, 293, 231, 214, 124, 219, 239, 157, 381, 398, 294, 160, 126, 227, 68, -68, -21, -33, 25, 26, -64, 147, 211, -21, 106, 87, 206, 281, 229, 95, 177, 299, 120, 137, 92, 35, 72, 41, -52, 64, 29, 65, 196, -90, 26, 30, -9, -41, -141, -98, -56, -91, -76, 23, 38, 161, 166, 147, 53, 40, 122, 102, 33, 81, 29, -22, -63, -77, -133, -106, -162, -36, 102, 119, 35, -3, 82, -30, -190, -289, -179, -95, -63, -28, 80, 66, 56, 56, 30, 15, 2, 83, 86, 93, 97, 49, -70, -137, -42, 38, 235, 144, 0, -70, -13, -159, -237, -311, -169, -86, -101, -44, -4, 80, 122, 66, 42, 42, 40, 45, 46, 28, 29, -33, -14, -89, 32, 100, 28, 99, -9, -175, -84, -167, -305, -298, -162, -117, -9, -35, 64, 121, 99, 56, 64, 86, 67, -60, 4, -11, -51, -32, -10, -60, 12, 47, -131, 173, 76, -99, -114, -125, -272, -208, -91, -116, 39, -5, 89, 36, 44, 60, 91, 32, 60, -19, -96, -60, -51, -73, -121, -90, 31, -51, 3, 113, -85, -129, -121, -97, -250, -122, 18, -12, 31, 47, 56, 36, 42, 44, 98, 60, -1, -51, -130, -113, -122, -117, -227, -94, 153, 114, 33, -94, -55, -77, -100, -212, -155, 38, 100, 77, 79, 39, 49, 132, 46, 77, 195, 48, -95, -105, -104, -127, -96, -82, -203, 70, 223, 85, 171, -107, 4, -69, -130, -159, -66, 108, 104, 121, 73, -6, -57, 8, -68, 93, 166, -59, -133, -128, -43, 12, -41, 2, -44, 189, 464, 283, 153, -44, -117, -144, -62, 48, -2, 100, 160, 43, -51, -6, -73, -48, -14, 121, 141, -85, -135, -100, -50, -45, -86, 6, 41, 214, 279, 143, 80, 14, 129, -146, -141, 178, 39, 30, 54, 32, 8, -5, -18, -59, 107, 199, 151, -5, -137, -161, -151, -50, -77, -78, 75, 229, 289, 71, 82, 155, 75, -104, -244, 92, -129, -29, 35, 26, 16, 61, 122, 59, 60, 160, 138, 16, -95, -198, -114, -134, -41, -16, 68, 200, 287, 144, 245, 133, 63, -45, -188, -88, -153, 59, 14, 30, 55, 70, 124, 112, 111, 199, 74, -90, -122, -182, -123, -104, -46, 38, -87, 61, 325, 284, -29, 49, -94, -70, -140, -17, -54, 1, 10, -85, -90, 54, 164, 175, 68, 31, 41, -121, -104, -174, -134, -123, -92, -53, -17, 90, 163, 339, 93, 33, -6, -58, -113, -27, -135, -61, -9, -79, -83, 90, 168, 130, 53, 15, -58, -54, -144, -152, -77, -51, -46, -83, -24, 43, 151, 261, -5, 139, 168, -9, -174, -127, -130, -73, -57, -89, -22, 29, 133, 54, -2, -22, -55, -68, -116, -34, -15, -33, -23, -44, 18, 87, 210, 342, -61, -7, 105, -87, -59, -210, -124, -137, -96, -14, -39, 57, 63, 93, 129, 97, 41, 45, 55, 48, 103, 121, 72, 25, 175, 217, 239, 354, 72, 48, -18, 44, 49, -102, -87, -30, -55, 41, 45, 85, 130, 115, 174, 196, 160, 140, 77, 144, 203, 192, 124, 98, 195, 197, 165, 298, 102, 35, 111, -70, 98, 64, 14, 74, 121, 144, 72, 142, 115, 161, 192, 210, 251, 154, 100, 150, 204, 119, 107, 108, 83, 168, 138, 242, 139, -1, 93, -15, 2, 106, 70, 151, 144, 69, 139, 142, 93, 98, 180, 176, 216, 138, 114, 112, 178, 100, 69, 68, 50, 95, 91, 239, 46, -7, 35, -9, -69, -84, -77, -7, -56, -83, 99, 60, 48, -2, 110, 94, 109, 97, 101, 54, 31, 73, 102, 112, 232, 162, 144, 213, 30, -2, 32, 31, -36, -219, -284, -249, -257, -208, -64, -79, -59, -78, 9, 47, 33, 5, 10, 86, 162, 76, 99, -11, 8, 146, 256, 135, 46, -4, -6, -5, 71, 13, -195, -244, -195, -219, -167, -195, -173, -100, -23, -58, -60, -2, 13, 78, 35, 105, 90, 64, 40, 129, 162, 50, 36, 35, 18, 0, 11, 7, 68, -16, -16, -90, -11, -1, 10, 144, 231, 126, 122, 95, 85, 97, 31, -31, 62, -33, -100, 17, -7, -63, -11, 34, -21, -33, -26, 9, -110, -71, 0, -10, -80, 6, -102, 44, 150, -19, 92, 69, 61, -38, -11, -43, -31, -153, -117, -175, 32, -30, 1, -24, 
-15, -34, 34, -13, -33, -8, -5, -7, -29, -19, 22, -2, 12, 0, 40, 76, 30, -7, -5, -12, 26, -28, -9, -22, -2, 20, -8, -27, 16, -33, 6, -35, 1, -53, -28, -49, -25, -14, -91, -122, -137, -77, -26, 0, 147, 151, -53, -156, -106, -93, -33, -92, -6, -31, 20, 10, -27, 30, 17, -6, -36, -54, -41, -25, 8, 78, 112, 78, 72, -53, -45, -85, -87, -122, -117, -218, -146, -106, -91, -7, 0, 1, 3, 27, -29, 6, 94, 5, -52, 42, 4, 60, 133, 211, 136, 173, 67, 9, -140, -228, -187, -294, -357, -367, -288, -246, -168, -103, -80, -42, 4, -22, -30, -3, 75, 13, 9, 11, 133, 83, 132, 85, 41, 138, 104, 74, -76, -178, -275, -265, -257, -292, -253, -252, -221, -238, -135, -31, -58, 11, -30, 0, -11, 71, 155, 80, 11, 10, 33, 57, 87, 135, 70, 82, 49, 6, -9, -144, -164, -214, -183, -201, -208, -201, -134, -1, -10, 44, -14, -86, 10, 183, 93, 0, 69, 3, 108, 159, 167, 133, 137, 206, 273, 218, 245, 115, 9, -162, -267, -268, -256, -304, -338, -87, -25, -15, 13, 114, 108, 209, 125, -27, 91, 9, 68, 117, 90, 82, 210, 288, 364, 262, 235, 24, -33, -111, -174, -181, -205, -262, -270, -186, -25, 12, -101, 208, 69, 35, 103, -34, -36, -39, 92, 54, 151, 115, 95, 227, 318, 276, 51, -5, -28, -33, -163, -239, -148, -141, -285, -190, -24, 12, 64, 151, 124, 90, 86, -2, 34, -13, 9, 73, 126, 23, 105, 95, 172, 121, 56, 96, 54, 45, -109, -245, -162, -155, -201, -52, 40, 65, 13, 40, 95, 103, -57, -6, 66, -32, 14, 47, -5, -57, -211, -221, -26, -12, 103, 133, 166, 101, 6, -210, -208, -212, -164, -19, 28, 14, 29, -29, 30, 19, -145, -70, -20, -109, -124, -113, -163, -190, -335, -389, -158, 70, 115, 169, 250, 174, 60, -91, -203, -223, -136, -35, -99, 12, 72, 54, 78, -43, -129, -165, -154, -186, -194, -279, -293, -302, -390, -362, -23, 104, 151, 145, 204, 101, -13, -227, -236, -266, -150, 73, -74, 19, -129, 31, 60, -60, -166, -244, -271, -198, -221, -220, -160, -156, -216, -130, 1, -21, 93, 181, 93, -5, -161, -213, -230, -157, -96, 28, 54, 58, -72, -65, 89, -136, -162, -337, -140, -89, -133, -125, -63, -64, -134, 12, 38, 42, 100, 143, 179, -6, -109, -141, -236, -153, -62, 55, 228, 41, -81, -98, -13, -109, -126, -197, -20, -54, -40, -56, -16, -89, -132, -60, -32, 42, 119, 118, 22, -118, -220, -187, -177, -100, 75, 51, 114, 142, -10, -69, -4, -59, -63, -82, -1, -30, -50, -21, -18, -33, -54, 12, 10, 5, 51, 74, -21, -207, -263, -134, -66, 19, 121, 107, 191, 150, 9, -65, 37, -34, -46, -19, -8, -124, -64, -19, -14, -26, 28, 77, 16, 56, -42, -49, -144, -175, -259, -128, -75, -25, 124, 312, 213, 226, 147, 12, -44, 85, -16, -26, -16, -36, -29, -81, 13, 44, 29, -1, 46, 7, 2, -3, -55, -118, -156, -46, 49, 55, 66, 206, 177, 143, -67, 82, -108, 122, 58, -101, -101, -65, -20, 14, 76, 53, 20, 47, 63, 10, -44, -74, -61, -30, -70, -42, 24, 95, 99, 158, 165, 86, 18, 6, -26, 169, 34, -103, -159, -41, -107, -1, 41, 55, 1, -10, 31, -23, -28, -116, -71, -50, 7, 16, 3, 15, 64, 86, 77, -92, -92, 35, 81, 122, 0, -78, -132, -91, -74, -34, -7, -31, -26, -43, -36, -33, 3, -52, -27, 51, 21, 31, 24, 67, 52, 11, -43, -8, -62, 8, 83, 21, 47, 61, 45, -4, 2, 10, 54, -8, 27, -18, 50, 3, 28, -36, -5, 79, 82, 31, 89, 30, 23, -2, -134, 5, -8, 18, -68, -115, -12, 111, 134, 153, -23, -64, -3, 2, -13, -9, -46, -63, -95, -96, -23, 56, -21, 81, 144, 65, 109, 20, -165, -13, 8, -24, 43, -118, 205, 231, 58, 32, -53, -130, -95, -87, -40, -53, -70, -22, -144, 18, -36, -64, -2, 85, 64, 124, 218, 238, 98, -35, -22, 0, -52, 11, 139, 178, 31, 25, 106, -26, -28, 33, 104, 89, 120, -6, 97, 96, 53, -45, 51, 62, -91, -76, -88, 94, 89, -7, -16, -28, -32, 32, 5, 5, 52, 183, 284, 346, 317, 216, 123, 182, 308, 180, 237, 245, 237, 292, 271, 129, 26, 77, 2, 84, 34, -4, 1, -31, 13, -1, 104, 134, 45, 34, 112, 85, 207, 152, 220, 201, 262, 48, 95, 226, 261, 220, 19, 1, -93, 29, 0, -21, 15, -27, 
-35, -21, -16, 26, -20, -35, 6, -23, -21, -25, 8, 1, 48, 104, 72, 103, 0, -7, 12, 1, 2, 21, -26, -20, -10, -35, -32, 34, 12, -29, -3, -19, 29, 15, 9, 27, 38, 89, 69, -2, -24, 91, 79, 66, 166, 160, -5, -16, -16, -35, 24, 48, -16, -16, 26, 28, 1, 6, -33, -34, -19, 54, 11, 64, 127, -18, -109, 3, 26, 47, -11, 95, 111, 69, -75, -324, -350, -324, -176, -78, 8, 95, -8, -10, -18, -11, 149, 109, 39, -27, -76, -71, -8, -25, -97, -87, -106, -80, -194, -177, -81, -182, -91, -82, -113, -17, 61, -111, -131, 87, 8, -5, 29, -24, 126, 19, -119, -86, 9, -120, -107, -151, -93, -91, -68, -77, -27, 7, -66, -81, -12, 8, -28, -79, -82, 35, 11, 25, -30, -113, -8, -13, 120, 118, -28, 28, 36, -37, 8, 1, -20, 52, 34, 55, 49, 14, -15, -166, -94, -161, -156, -24, -18, -25, -36, -121, -88, -88, -27, -57, -56, 17, 95, 114, 153, 113, 70, 51, 117, 121, 79, 27, 50, -20, -18, -95, -51, -109, -110, -37, -47, -34, -8, -116, 126, -19, 14, 102, 93, 113, 126, 53, 5, 43, 13, 87, 132, 104, 110, 58, 1, -107, 13, 14, 0, 1, 66, 66, 148, 39, -46, -45, 19, -53, -76, 196, 19, 43, 125, 54, 53, 51, 90, 104, 98, 161, 62, 78, 153, 105, 54, 134, 122, 140, 175, 99, 228, 291, 97, 26, 45, -50, 50, 162, 32, 94, 66, 126, 72, 116, 61, 81, 102, 32, 133, 186, 300, 287, 253, 226, 171, 154, 130, 133, 163, 260, 234, 158, 134, 152, 62, 116, 88, -85, 67, 140, 128, 128, 80, 73, 73, -80, -79, 119, 279, 313, 283, 199, 155, 108, 86, 135, 57, 169, 287, 293, 291, 86, 37, -8, 90, -153, -1, 67, 60, 46, 53, -4, -155, -286, -366, -221, -34, 78, 3, -63, -93, -139, -92, -78, -53, -1, 82, 241, 185, 65, 51, 90, 101, -101, -93, -96, -169, -87, -42, -128, -264, -499, -623, -482, -186, -165, -181, -206, -242, -332, -380, -335, -440, -402, -264, 124, 249, 94, 69, 135, 144, -187, -323, -257, -307, -321, -258, -252, -282, -441, -501, -375, -94, -104, -130, -65, -183, -290, -295, -246, -376, -313, -79, -32, 209, 121, 1, -36, 161, -284, -444, -500, -519, -423, -512, -354, -229, -269, -285, -95, -64, -57, -45, -36, -41, -20, -102, -75, -100, -172, -201, -72, 243, 37, 25, 2, 14, -216, -329, -439, -412, -445, -329, -245, -188, -131, -23, 84, 75, -49, -31, -40, 14, -123, -63, 9, -94, -98, -85, -17, 209, 195, -1, -81, -37, -262, -397, -321, -94, -236, -169, -97, -40, -23, 95, 191, 94, -17, -22, -61, -109, -100, -14, -24, -28, -52, -74, 128, 263, 170, 28, -45, -76, -199, -222, -92, 35, 21, -16, 95, 72, 77, 156, 197, 94, 12, -69, -94, -96, -171, -93, -67, -109, -43, 37, 272, 284, 174, 86, -16, -219, -141, -24, 76, 107, 144, 178, 148, 174, 201, 274, 188, 146, 46, -46, -57, -112, -142, -54, -102, -100, -7, 31, 115, 302, 175, 32, 63, 83, -20, -2, -15, 109, 168, 233, 252, 169, 214, 232, 268, 93, 81, -3, -94, -126, -86, -14, -70, -122, -50, 39, 221, 248, 209, 26, -5, 173, -6, 14, 20, 42, 96, 241, 181, 146, 159, 218, 157, 126, 38, 47, -62, -80, -20, -83, -32, -52, 18, 104, 195, 201, 56, 92, 24, 45, -46, -43, 88, 23, 28, 61, 141, 152, 155, 166, 156, 179, 130, 68, 27, -14, 19, 27, 30, 7, 28, 205, 211, 142, -18, 80, 34, 18, -79, 61, 249, 124, 57, 103, 84, 30, 31, 98, 42, 127, 62, 69, -61, -13, -13, -21, 14, -83, -89, -6, 108, 190, -1, -20, 7, -85, -251, 36, 180, 154, 40, -31, 106, -10, 43, 131, 9, 41, 13, -32, -54, -72, -10, -33, -104, -127, -93, -48, 127, 221, 16, -5, 20, 26, -252, -82, 8, -41, -97, -82, -3, -46, 4, 26, 23, 51, -65, -116, -26, -4, -75, -101, -114, -196, -146, 152, 149, 122, 2, 24, 24, -113, 148, 44, -75, -132, -128, -80, -62, -149, -51, -57, -50, -35, 51, 38, 3, -61, -141, -284, -207, -234, -161, 3, 44, 63, 5, 35, 8, 14, -48, -223, -214, -230, -91, 44, 37, -41, -43, -111, -19, -48, -57, -41, -51, 1, -32, -127, -205, -94, -39, -71, 99, -5, -2, 33, -26, 16, -1, 148, 168, 38, 12, 49, 68, 198, 5, 10, 227, 161, 185, 236, 67, -45, 79, -44, -106, -116, 15, 4, 1, 13, 6, 
-5, 0, 4, -24, -18, 0, -22, -11, -30, 5, -28, 24, 15, 67, 43, 4, -30, 18, -24, 2, -27, 5, -21, 16, -16, 20, 16, -31, -29, 8, -31, 30, 18, 114, 155, 197, 184, 171, 164, 169, 236, 221, -123, -58, 195, 227, 195, 145, 225, 131, 137, 116, -34, 23, -21, -16, 20, 30, 16, 113, 143, 171, 192, 309, 282, 222, 304, 311, 96, -107, -48, 0, 4, 178, 175, 129, 113, 167, 197, 285, -37, -29, -28, -32, -7, 23, -108, 168, 172, -4, 67, 33, 50, 28, 9, 67, -51, -56, -11, -39, -51, 64, 68, 45, 60, 210, 190, 151, 190, 67, 112, -30, 23, -28, -135, -62, -8, -122, -110, -84, -174, -161, -270, -222, -241, -196, -175, -99, -164, 9, 25, -52, -24, 56, 35, 135, 189, 115, -27, 80, -25, 7, -159, -122, -97, -161, -210, -110, -14, -100, -58, -12, -60, -29, -59, -82, -41, 38, 38, -27, 10, -62, -33, 32, 65, 114, 166, 121, -21, -103, 150, -43, -79, -143, -146, -97, -31, -69, -50, 40, 38, 112, 100, 138, 164, 130, 93, 125, 29, 21, -19, -69, 7, 190, 64, 39, 42, -127, 206, 5, -192, -112, -70, -89, -32, -25, 76, 73, 84, 124, 143, 173, 146, 102, 109, 99, 30, 64, -1, -68, 98, 235, 35, -1, -59, 99, 48, -81, -137, -124, -41, -111, 18, -20, 10, 37, -62, -42, 13, 58, 45, -43, -9, -25, 64, 40, -64, 38, 197, 168, -113, -84, 38, 94, -29, -88, -90, 44, -2, -80, -23, -23, 1, -17, 16, 14, -1, -64, -94, -59, -47, -4, -1, -56, -91, 19, 255, 100, -42, 120, 26, -27, 53, -173, -61, 160, 141, 99, 72, 127, 51, 74, 91, 11, -48, -149, -90, -97, -53, -11, 26, -78, -107, -7, 243, 180, 70, -101, 32, 0, -39, -151, -8, 158, 169, 196, 210, 136, 79, 99, 107, 55, 12, -50, -9, -5, 3, -6, 38, 18, 7, 92, 100, 84, -56, -66, -2, -37, 14, 22, 111, 127, 142, 145, 151, 109, 90, 147, 8, -17, 5, 1, -29, 28, 48, 93, 32, -26, 26, 41, -142, -78, -20, 18, -67, -58, 3, 50, 200, 135, 107, 177, 100, 66, 195, 126, 30, 4, -11, 25, 23, -20, 55, 114, 64, 56, 111, 42, -10, -166, -106, -95, 67, -98, -134, 13, 109, 107, 115, 174, 53, 95, 159, 152, 35, 31, -26, -30, 47, 86, 214, 178, 213, 84, 157, 124, -22, -161, -90, 24, 73, -63, -277, -13, 37, 99, 151, 99, 26, 45, 117, 40, -29, -113, -77, 35, 67, 196, 246, 184, 168, 126, 19, 47, -7, 14, -197, -82, -47, -152, -239, -74, 15, 114, 138, 95, 99, -46, 47, 42, -51, -122, -78, 56, 109, 259, 210, 118, 153, 62, 14, -108, -210, 54, -135, -112, -16, -67, -147, -51, -91, 105, 135, 43, 111, 70, 15, -23, -113, -83, -54, 173, 177, 245, 205, 93, 50, 12, -47, -156, -87, 181, 14, 69, 155, -15, -132, -138, 18, 80, 164, 206, 75, -6, 42, -1, -57, -62, 93, 187, 156, 177, 153, 47, 9, -58, -121, -176, -59, 20, -26, -193, -69, -26, 109, -29, -5, 5, 85, 80, 73, 0, 2, 46, -6, -18, 32, 68, 18, 51, -6, -20, -73, -163, -145, -173, -48, -85, -45, -152, -11, 83, 144, -22, 2, 129, -2, -44, 70, -13, 36, 2, -47, 39, 11, -20, -64, -116, -224, -181, -277, -250, -162, -88, -7, 65, -67, -19, -87, -70, 2, -137, -56, -64, -99, -41, 32, 99, 49, 62, 52, -9, -66, -46, -93, -144, -234, -262, -242, -199, -109, -52, 88, -3, 32, 27, -77, -123, -1, -72, -77, -161, -104, 21, 63, 76, 92, 71, 135, 29, -62, -65, -74, -191, -215, -196, -182, -154, 11, 84, 188, 68, 30, 19, 25, -6, -197, -88, -89, -48, -30, -20, 30, 3, 16, -30, -21, -67, 0, -30, -96, -129, -96, -16, 9, 35, 180, 203, 271, 82, -147, -21, -30, -22, 1, -110, -6, 85, -11, 37, -1, -29, -12, -33, 9, 24, 19, 51, 59, 60, 20, 60, 93, 52, 95, 203, 269, -101, -151, 11, 24, 23, 57, 120, 106, 135, 45, 9, -72, -25, 75, 147, 44, 61, 83, 129, 138, 122, 59, 145, 173, 193, 163, 163, 75, 26, -25, -31, 34, -18, -23, 66, 122, 134, 194, 110, 101, 237, 194, 177, 230, 280, 346, 202, 222, 132, 197, 126, 184, 240, 163, 126, 81, -56, 8, -6, -13, 10, 20, 0, -131, -125, 102, 115, 99, 145, 214, 169, 182, 147, 291, 166, 163, 170, 214, 199, 109, 128, 67, -63, -16, -16, 0, 31, 
14, -16, -5, 34, -29, -18, -23, -31, -24, -4, 23, -1, -20, 4, -4, -2, -34, -13, -25, -25, 9, -20, -30, 22, -25, 28, 34, -35, -22, -14, -15, 14, -1, -3, -36, -26, 12, -22, 4, -33, -50, -19, 28, 22, 50, 32, 11, -30, 4, -13, -43, 29, -8, 16, -2, -12, -28, -1, -28, 25, 3, 19, -58, 33, 66, 91, 41, 16, 50, -90, -54, -114, -166, -127, -149, -109, -95, -109, -99, -88, 17, 39, 2, 14, 32, -18, 20, 0, -8, 39, 29, 126, 283, 276, 226, 246, 269, 196, 142, -36, -50, -60, -102, -14, 19, -105, -194, -214, -77, 3, 80, 26, -13, 14, 3, 84, -67, 24, 252, 277, 253, 337, 247, 308, 206, 115, 34, 34, -4, 12, 98, -52, -124, -114, -116, -142, -67, -9, 139, -30, -29, 0, 21, 206, 95, 77, 167, 182, 153, 125, 209, 201, 151, 147, 159, 109, 121, 145, 144, 94, 97, 38, 74, -2, -76, 96, 73, -64, 0, 118, 40, 161, 140, 106, 124, 107, 95, 96, 163, 110, 180, 231, 214, 192, 170, 137, 172, 147, 73, 95, 129, -35, 42, 62, 62, -8, 1, 157, 79, 71, 130, 92, 62, 86, 122, 105, 127, 159, 200, 226, 262, 253, 185, 179, 154, 144, 93, 69, 60, -2, -52, 42, 83, -20, -20, 18, 11, 51, 105, -36, -69, -12, 26, 35, 86, 95, 133, 174, 275, 210, 216, 161, 160, 122, 132, 34, 132, 100, -49, -56, -24, -77, 14, -37, 70, 20, 56, -61, -110, -61, -81, -13, -92, -87, 13, -9, 28, 9, 126, 113, 106, 76, 49, 36, 89, 86, 13, 5, -76, 60, 13, -5, 115, 57, -120, -117, -146, -141, -116, -133, -146, -149, -221, -187, -233, -273, -108, 16, 75, 4, -19, 14, 14, -37, -11, 7, 116, 92, -4, 41, -1, -58, -218, -250, -228, -249, -183, -167, -153, -114, -206, -278, -427, -397, -222, -37, -40, 0, -56, -22, -28, -84, -62, -21, 93, -120, -24, -9, -54, -100, -297, -271, -197, -158, -103, -75, 8, -68, -85, -227, -272, -258, -204, -96, -41, -6, -53, -131, -119, -131, -107, -101, -24, -137, -8, -24, -65, -93, -282, -222, -147, 4, -13, 34, 58, -39, -20, -15, -81, -162, -181, -96, -1, -11, -35, -58, -125, -191, -108, -83, -6, -33, 131, -57, -21, -56, -202, -117, 10, 110, 45, 3, -24, -94, -71, -25, 5, -50, -164, -151, -111, -110, -40, -24, -99, -128, -94, -43, 106, 61, 101, -32, -4, 8, -33, 35, -9, 96, 7, 1, -33, -95, -79, -38, -35, -72, -151, -156, -133, -87, -10, 8, -109, -82, 98, -95, 151, 121, -38, -11, 19, 156, 25, 23, -37, -67, -79, -40, 11, -58, 44, 31, -62, -115, -220, -213, -150, -30, -71, 14, -10, -39, 62, 3, 139, 108, 14, -21, 24, 106, 98, -109, -120, -180, -148, -149, -47, -49, -63, -100, -183, -139, -149, -101, -134, -69, -70, 6, 29, -67, -82, 146, 46, 104, -29, 60, -72, 84, 9, -119, -170, -129, -90, -164, -140, -128, -174, -259, -248, -77, 27, 30, 14, 56, 21, 47, 80, 20, 45, 111, 43, 176, -15, 45, -32, 53, -45, -60, -62, 2, -44, -93, -116, -106, -58, -47, -44, 26, 83, 142, 72, 14, 75, 9, 12, -70, -15, 90, 120, 63, -22, 50, 59, 130, 67, 56, 47, 36, 28, 26, -18, 58, 62, 112, 92, 139, 147, 149, 52, 59, 45, 6, -3, -5, -69, -18, 15, 7, -55, 93, 287, 207, 22, -28, -55, 21, 47, -9, 22, 123, 182, 148, 165, 200, 215, 156, 98, 133, 42, 94, 143, 233, 44, 84, 102, 0, -98, -13, 273, 190, 27, 23, 58, 116, 97, 160, 138, 154, 168, 199, 149, 183, 184, 138, 177, 151, 119, 105, 272, 249, 213, 104, -67, 36, -10, -6, 174, 215, 137, 88, 156, 185, 156, 271, 311, 316, 208, 150, 189, 170, 151, 191, 221, 141, 145, 148, 190, 310, 268, 122, -58, -25, 21, -2, -35, 130, 240, 95, 126, 181, 184, 209, 133, 161, 229, 276, 302, 196, 234, 286, 277, 137, 33, -4, 98, 142, 319, 168, -97, -17, 30, 18, -11, -106, 67, 33, 156, 189, 234, 279, 225, 190, 242, 244, 77, 164, 202, 188, 156, 209, -16, -3, 103, 45, 68, -105, -2, -21, 19, -19, -3, -7, -113, -184, -175, -125, -17, -41, 31, 28, 111, 139, 122, 222, 224, 100, 152, 209, 21, -29, 43, 37, -2, 105, -24, -26, 31, -32, 29, 26, 5, -38, 79, -26, -2, 13, 107, 124, 127, 121, 23, 71, 76, 80, 23, -1, -33, -27, 21, 1, -13, 10, 30, -24, 
-16, 16, 34, 20, -27, 26, 20, 14, 6, -5, 22, 8, -14, -21, -19, 28, 7, 6, 7, -11, 9, -29, 11, 14, 29, 0, 28, -12, -17, -34, 0, 0, 3, -38, -27, -21, -39, -41, -92, -114, -128, -47, -38, -198, -159, -157, -87, -74, -98, -90, -72, -74, 9, 1, 9, 30, -34, -19, -6, -9, -20, -13, -4, -81, -72, -156, -286, -272, -187, -216, -286, -248, -294, -276, -276, -207, -185, -92, -111, -100, -11, -20, 4, -12, 10, 33, 121, -44, -82, -116, -32, -126, -240, -258, -349, -405, -432, -477, -612, -590, -501, -361, -254, -329, -294, -264, -93, 7, -74, -55, -99, -2, -20, -23, 131, -7, -3, -127, -102, -158, -108, -239, -252, -288, -264, -286, -348, -362, -113, -118, -116, -7, -8, 8, -31, 5, -104, -138, -113, -98, 35, 17, 116, -14, -49, 82, -14, -79, -159, -195, -202, -121, -106, -147, -92, -63, -128, -83, 0, 53, 25, 98, 91, 18, -7, -64, -177, -98, 26, -76, -60, 3, 1, -68, -72, -106, -213, -220, -213, 4, -27, -67, -36, -77, -13, 74, 41, 80, 113, 207, 113, 115, -28, -118, 9, -75, -3, -142, -36, -9, -60, -93, -114, -162, -223, -113, -84, -43, 56, 78, 3, 7, 47, 76, 67, 163, 153, 182, 83, 87, 32, -118, 85, -65, -46, -94, -50, -11, -41, -55, -41, -70, -84, -18, -23, -9, 52, 108, 42, 65, 15, 54, 79, 35, -18, 70, 31, -43, -31, -32, -63, 13, -51, -74, -69, -152, -162, -101, -135, -172, -139, -128, -48, 21, 93, 161, 78, 82, 4, 5, -5, -53, -124, -21, -11, -70, -122, -189, -48, 104, -16, 42, -136, -198, -127, -189, -303, -284, -145, -112, 25, 30, 60, 79, 90, 163, 77, -8, -37, -121, -127, -54, -32, -172, -155, -100, -111, 183, -16, -92, 12, -160, -99, -226, -298, -202, -29, 57, 170, 179, 117, 68, 179, 272, 189, 109, -20, -148, -77, -48, -32, -195, -213, -296, -25, 51, -13, -48, 6, -103, -69, -321, -252, -131, -54, 11, 86, 139, 148, 137, 194, 313, 265, 126, 4, -169, 3, 81, -42, -49, -148, -212, -184, -5, 81, -57, -122, -88, -98, -223, -174, -84, -99, 52, 46, 30, -13, 165, 293, 365, 222, 104, -94, -98, 59, 1, -107, -169, -253, -210, -200, -70, -52, -19, -61, 14, 10, -162, -226, -118, -114, -46, 10, -17, 103, 266, 370, 328, 247, 81, -90, -118, -63, -161, -179, -226, -219, -146, -278, -28, 4, 22, -27, -66, 25, -183, -193, -197, -200, -99, 16, 73, 213, 277, 376, 215, 189, 17, -151, -211, -170, -140, -156, -131, -274, -203, -164, -3, 14, 28, -52, -142, -94, -185, -268, -230, -131, -62, -73, 41, 202, 301, 284, 151, 130, -26, -255, -280, -142, -105, -207, -256, -342, -332, -144, -77, 3, 2, -77, -132, -144, -172, -296, -234, -104, -116, -72, 20, 212, 264, 207, 29, -53, -234, -334, -216, -132, -107, -112, -167, -105, -154, -39, -95, -96, -13, -101, -177, -219, -233, -308, -241, -179, -119, -144, 20, 131, 206, 86, -113, -311, -383, -345, -245, -150, -146, -241, -235, -188, -81, 119, 63, 71, -119, -140, -237, -186, -307, -307, -274, -202, -141, -115, -32, 75, 48, -26, -238, -270, -337, -391, -316, -259, -312, -294, -317, -275, -60, 41, 117, -26, -3, -184, -338, -250, -329, -244, -224, -124, -97, -10, 0, 25, -91, -99, -167, -193, -227, -335, -270, -307, -187, -208, -204, -208, -61, 62, 12, 69, -59, -108, -298, -204, -168, -100, -67, -72, 40, 4, -2, -33, -138, -128, -143, -195, -240, -296, -274, -216, -136, -179, -144, -87, 14, -33, 12, 124, 49, -86, -297, -146, 20, 47, 2, 13, 45, 64, -20, 17, 39, -14, -88, -120, -120, -164, -280, -245, -178, -185, -28, 69, 54, 25, -29, 33, -13, -181, -264, -175, -4, 56, 71, 112, 88, 104, 73, 138, 133, 12, 12, 29, -4, -183, -261, -289, -190, -66, 1, -10, 18, 102, 24, -10, -35, -77, -194, -122, 93, 17, 18, -4, -13, -22, 9, -44, -113, -147, -18, -144, -144, -115, -139, -114, -108, 48, 87, -79, -24, -19, 13, 33, 0, 2, 117, 79, 48, -113, -79, -37, -95, -144, -130, -158, -139, -46, -151, -153, -104, -89, -96, -52, -75, -67, 119, 25, -66, -41, -30, 4, -12, -34, 59, 258, 245, 246, 187, 209, 174, 168, 47, 14, -12, 97, 94, 126, 96, 70, 64, -15, 38, 62, 20, 38, -4, 26, -24, 21, -14, 24, -4, -106, -87, 12, 114, 25, 83, 31, 86, 86, 60, 343, 231, 159, 168, 142, 14, 40, 30, 14, 41, 32, -30, 20, -16, 
32, -10, -11, 4, 26, -1, -25, 0, -31, 9, -32, 27, 73, 9, -64, -60, 3, -10, 32, -18, 18, 21, 8, 16, -14, -18, 4, -27, 13, 4, 3, -22, 90, 136, 116, 181, 127, 129, 138, 195, 308, 290, 16, 2, 13, 187, 312, 220, 203, 168, 137, 117, -31, 19, 23, -2, 23, -30, 48, 103, 163, 160, 194, 149, 55, 14, 99, 137, 1, -122, 0, -41, -50, 7, -15, 24, 47, 155, 192, 136, -8, -64, 27, -1, 3, -10, -72, 47, 25, -82, -46, -74, -72, -87, -73, 32, -155, -114, 37, -35, -21, -16, -63, -91, -62, 19, 7, 88, 76, -112, 10, -20, 26, 55, -117, -71, 123, -19, -81, 6, 36, -34, -83, -68, -117, -30, -67, -73, -121, -41, -80, 1, 42, 46, 90, 73, -53, -64, -74, 128, -15, 30, -190, -152, 6, -16, 55, 107, 174, 125, 70, 46, 33, 109, 96, 10, -82, -92, -54, -89, -117, -100, -114, -7, -28, -47, -14, 61, 0, -79, 111, 61, 0, 25, 20, 71, 80, 0, 98, 66, 95, 82, 38, 82, 50, 114, 35, -14, 23, 51, -8, -61, -180, -193, -217, -4, 5, -67, 164, 116, -69, -32, 12, 42, 7, 96, 100, 100, 98, 128, 39, 103, 137, 188, 137, 101, 105, 50, 12, 21, 25, -73, -71, -21, 132, 87, 81, 115, -28, 53, 83, 112, 175, 155, 83, 57, 67, 9, 55, 78, 108, 119, 173, 112, 100, 135, 44, 12, 33, -152, -119, -27, 54, 168, 76, 94, 64, 65, 87, 99, 89, 131, 63, -13, 27, 6, 25, 18, 54, 68, 142, 222, 208, 131, 77, 24, -73, -308, -206, 116, 65, 63, 148, -23, 51, 40, 84, 97, 76, 133, 21, 14, -4, 77, 26, -47, 30, 46, 130, 131, 157, 160, 202, 106, -137, -375, -315, 28, 53, 174, 181, 55, 6, 57, 55, 166, 175, 149, 125, 113, 85, 72, 2, -63, 6, 40, 47, 88, 169, 207, 183, 81, -119, -543, -301, 1, 122, 106, 175, 129, 100, 87, 137, 202, 188, 155, 64, 116, -42, -32, -65, 29, 52, 58, 83, 89, 134, 208, 281, 305, 142, -335, -349, 35, -128, 113, 162, 80, 231, 147, 232, 191, 93, 80, 160, 12, -112, -164, -105, -12, 67, 47, 115, 103, 125, 209, 212, 190, 56, -186, -343, -98, -69, 55, 242, 7, 174, 240, 143, 154, 58, 71, 91, 52, -54, -114, -97, -30, -45, 119, 167, 262, 188, 193, 182, 133, 26, -145, -307, -121, -79, 98, -29, -89, 1, 51, 10, 131, 51, 6, 117, 77, -52, -95, -121, -8, 0, 196, 169, 172, 167, 189, 185, 27, -131, -140, -240, -116, 30, -28, -101, -228, -104, -13, 34, 211, 261, 152, 121, 85, -67, -143, -88, 66, 69, 140, 168, 88, 149, 48, 29, -105, -239, -220, -274, -142, -29, -74, -132, -318, -148, -47, -19, 142, 148, 181, 149, 111, 8, -47, 13, 85, 100, 155, 63, -1, 112, 43, 67, -54, -124, -140, -173, -43, 145, -40, 77, -282, -207, -202, -106, 25, 52, 88, 113, 57, 9, -7, -16, 66, 53, 77, 60, -36, 4, 1, -69, -176, -206, -172, 5, -127, -107, 174, 60, -69, -134, -69, -46, -50, -29, -29, -10, -26, 40, -22, -3, 13, -48, -7, -90, -33, -51, -49, -144, -260, -248, -363, -201, -152, 5, 68, -79, -151, -143, -53, -68, -43, -96, -100, -10, -13, 35, 67, 23, 4, -32, -95, -219, -113, -132, -142, -183, -300, -198, -293, -124, -42, -129, 3, -210, -216, -157, -91, -80, -57, 39, -19, 27, 52, 98, 55, 7, -6, 12, -110, -197, -184, -159, -227, -229, -245, -231, -218, 82, 17, -110, -50, -188, -246, -207, -145, -21, 35, 26, 63, 66, 72, 123, 132, 96, 117, 41, -42, -151, -163, -198, -168, -141, -168, -135, -118, -30, -25, -12, -19, -175, -211, -146, -26, 48, 135, 24, 26, 25, 49, 63, 99, 126, 124, 10, 38, -69, -121, -175, -136, -142, -173, -166, -171, -183, -8, -26, -20, 49, 38, 89, 158, 73, 100, 51, -16, 51, -8, -15, 6, -26, 0, 24, -73, -137, -173, -104, -162, -157, -88, -222, -181, -101, 30, -10, 29, -146, 106, 163, 126, 16, 39, 21, 42, 62, 58, -67, -48, -25, -83, -21, -127, -59, -64, -73, -62, -124, -131, -101, -69, -36, -15, 5, -14, 13, 36, 2, -52, 85, 126, 184, 168, 121, 27, -9, 68, 141, 58, 89, 81, 170, 180, 91, 134, 134, 119, 140, 95, -15, 29, 31, -5, -7, 5, 116, 127, 0, 10, 74, 72, 121, -12, 3, 109, 218, 85, 104, 354, 300, 259, 136, 211, 214, 134, -23, 18, 23, -19, 
-11, 18, 32, -16, 29, 15, -16, -28, 6, -15, 8, -21, 12, 5, 11, 36, 3, 18, 11, 1, 31, 17, 26, 35, 34, 25, 7, 31, 24, -33, -35, -14, 2, -32, 29, -41, -5, -23, 33, 81, 21, 54, -23, -9, 48, 9, -158, -45, 12, -43, -11, 10, 16, 30, -5, 24, 4, -8, 28, 108, 93, -128, -77, -42, -39, -80, -14, -11, 56, -43, -168, -247, -227, -166, -176, -126, -14, -40, 9, -4, -25, 1, 3, 14, 24, -12, 88, 108, -20, 24, -74, 20, 141, 35, 106, 148, 138, 51, -5, -20, -49, -51, -198, -204, -67, -132, -104, 12, 110, 119, 27, -13, 11, 53, 110, 133, 0, 27, 85, 27, 116, 107, 136, 189, 132, 69, 16, -4, -115, -144, -181, -244, -190, -217, -130, -135, -85, -76, 29, -35, 14, 22, -47, 20, 29, 91, 121, 96, 107, 112, 105, 208, 198, 220, 48, -49, -78, -133, -149, -137, -172, -177, -246, -330, -249, 25, 15, -63, 27, 52, 40, 158, 38, -17, 92, 46, 75, 118, 189, 276, 195, 274, 238, 217, 155, 208, 232, 53, 20, 70, -136, -239, -244, -72, -155, -73, -25, 94, 79, 191, -20, -120, 68, 9, 100, 84, 172, 103, 177, 198, 190, 228, 254, 247, 196, 186, 119, 39, -49, -80, -150, -266, -219, 12, 81, 168, -25, 78, -46, -55, 64, 73, 72, 67, 62, 90, 168, 176, 273, 281, 295, 254, 205, 171, 81, 98, 139, 24, -81, -221, -82, 78, 53, 124, -26, 158, 72, 52, 85, 76, 37, 59, 73, 15, 82, 142, 281, 251, 167, 167, 158, 143, 157, 164, 206, 104, -28, -6, 33, 88, 60, 58, 115, 226, 66, 106, 144, 36, 22, 12, -4, -56, -50, 60, 230, 137, 138, 41, 114, 51, 160, 162, 251, 153, -83, 5, 78, 82, -11, 120, 213, 178, 88, 0, 33, 24, 23, -111, -87, -2, -90, 123, 185, 20, -86, 65, 37, 81, 191, 202, 205, 32, 14, 112, 148, -37, 10, 50, 112, 90, 165, -20, -51, -36, -111, -91, -78, -119, -189, -1, 137, -30, -71, 17, 34, 93, 157, 99, 121, 22, -144, 35, 95, -34, -101, 23, 122, 112, 71, -82, -92, -58, -76, -58, -136, -207, -219, -78, 0, -59, 11, 16, 21, 42, 50, 17, -5, -167, -155, -44, -6, -89, -70, 25, 150, 97, -59, -147, -44, -76, -66, -63, -56, -112, -137, -55, -88, -41, -64, -21, 79, 61, 23, 83, -63, -116, -93, -25, 59, -53, -57, 61, -118, -14, -8, -75, -81, -55, -93, -107, -60, -56, -128, -113, -91, -71, -63, 18, 47, 68, 67, 48, -42, -89, 52, -81, -50, 75, 41, 130, 18, -17, 181, -27, -99, -39, -47, -24, -29, -3, -50, -89, -171, -97, -38, 68, -1, -33, -37, -90, -41, -12, 25, -197, -77, 118, -6, 43, -60, 13, 58, -67, -113, -97, -90, -62, -44, -16, -38, -162, -166, -98, -8, 18, -65, -11, -18, -82, 38, 5, 15, -28, 54, 53, 144, 26, -46, -50, -57, -48, -13, -83, -87, -30, 1, 52, -123, -114, -90, -47, -83, 5, -18, 34, 25, 16, 144, -9, -14, -29, 135, 30, -42, 166, 2, -58, 9, 61, 23, 32, -33, -42, 28, -82, -27, -76, -49, -127, -78, -17, -11, 47, 35, -1, 73, 90, 57, -52, 86, 29, 3, 122, -107, 18, 36, 143, 119, 66, 76, -19, -82, -160, -73, -29, -42, -125, -121, -79, -37, 77, 67, -30, -5, 18, 59, 19, -5, 15, -90, 53, -6, -18, -15, 78, 168, 73, 64, -25, -25, -24, -16, -48, -62, -117, -44, -61, -75, -26, -61, -142, -130, -116, -66, -62, -10, 20, -65, -4, -15, -33, -13, 65, 196, 183, 140, 102, 19, -4, 28, 11, 23, 6, 0, -34, -32, -95, -136, -224, -105, 28, 8, -83, -171, 25, -24, 29, 110, 187, 142, 68, 195, 265, 153, 27, 62, 59, 20, 64, 63, 32, 19, 22, -16, -79, -183, -150, -72, 47, 14, -167, -188, 25, 22, -34, 148, 256, 383, 297, 261, 264, 225, 24, 115, 32, 91, 135, 59, 109, 67, 49, -23, -19, -9, -71, -53, 42, -115, -192, -113, -3, -31, -6, 127, -47, 153, 282, 319, 384, 402, 293, 209, 265, 263, 198, 225, 126, 180, 111, 72, 218, 102, 130, -15, -85, -32, -52, -26, 26, -20, 7, -16, 57, 62, 100, 195, 413, 405, 545, 467, 436, 361, 500, 527, 270, 455, 427, 405, 363, 299, 309, 213, 70, 31, -49, -19, -7, 24, -15, 7, -32, -11, -81, 88, 89, 160, 122, 172, 149, 182, 139, 300, 227, 242, 291, 303, 200, 186, 138, 161, 87, -8, -14, -31, 20, 
-18, -35, 33, -12, 24, 11, 10, -10, -34, 1, -18, 7, -65, -102, 7, -6, -31, -28, 1, -30, 24, 34, -17, 23, -14, -3, 3, 18, -26, 1, 29, 18, -42, -117, -192, -161, -120, -171, -141, -207, -170, -233, -27, -222, -136, -137, -104, -141, -116, -118, -118, -119, 8, -16, 25, 6, -31, -2, -10, -74, -137, -182, -273, -288, -324, -372, -376, -480, -483, -369, -260, -157, -155, -23, 8, 37, 20, -89, -153, -183, -27, 0, 31, 34, -9, -20, 14, -135, -50, -175, -278, -194, -358, -474, -498, -486, -457, -483, -363, -346, -206, -128, -55, 62, 3, 118, 122, 6, -130, -145, -48, 12, 8, -42, 56, -19, -20, -140, -91, -18, -190, -196, -212, -56, -58, -91, -51, -56, -46, -31, -29, 61, 65, 110, 165, 175, 158, 104, 64, -74, 2, 21, -68, -37, -65, 28, -38, -69, 40, 62, 93, 89, 39, -106, -84, -74, -6, 12, -64, -10, -9, 43, 119, 145, 94, 90, 47, -51, 19, -22, 79, -174, -10, 140, 19, 56, 155, 208, 59, -38, -81, -146, -39, -94, -45, -25, -55, -49, -79, -103, 31, 102, 135, 165, 220, 19, -34, -96, 39, -156, -56, 118, 32, 88, 288, 134, 104, -111, -209, -160, -103, -8, 37, 64, 35, -20, -53, 54, 114, 200, 141, 256, 286, 42, 21, -207, 53, -22, -67, 177, 127, 210, 174, 131, -6, -175, -271, -214, -155, 39, 133, 57, 49, -22, 36, 70, 63, 198, 332, 485, 299, 108, -31, -136, -55, -156, -118, 41, 85, 167, 128, 148, 8, -60, -275, -294, -238, 2, 101, 46, -21, -5, 54, 135, 164, 194, 336, 391, 369, -39, -40, -45, -179, -245, 11, -30, 62, 168, 199, 235, 193, 12, -191, -358, -351, -24, 3, -82, -40, -5, -31, 13, 75, 95, 311, 416, 280, 51, -10, -204, -265, -162, 22, 79, 106, 182, 333, 413, 347, 204, -8, -294, -296, -54, 3, -115, -126, -111, -86, -128, -61, 2, 75, 228, 333, -12, -23, -30, -124, -36, -23, 65, 129, 224, 329, 361, 326, 337, 218, -38, -262, -51, -79, -178, -112, 5, 12, 6, -37, -52, -54, -29, 21, -165, -25, 40, -176, -73, 8, 149, 144, 237, 275, 280, 314, 359, 284, -9, -153, -31, -98, -50, -55, -6, 43, 58, 36, -81, -224, -217, -154, -98, 99, 65, -158, -25, 162, 132, 124, 141, 222, 231, 268, 264, 226, 74, -31, -63, 15, 97, 17, 24, -31, -13, 78, -55, -195, -269, -219, -123, 64, 9, 57, 19, 8, 7, 61, 99, 185, 216, 277, 296, 238, 110, 42, -39, 27, 139, 0, -72, -156, -32, 34, 12, -197, -231, 19, -83, -56, -27, -38, -51, -207, -87, -51, -35, 83, 96, 145, 183, 274, 219, 39, 88, 50, 90, -32, -48, -79, -6, 43, 28, -62, -131, -101, -60, 27, -10, 96, -91, -224, -106, -125, -139, -113, 22, -11, 53, 150, 199, 57, 79, 107, 2, -41, -86, -104, -65, -28, 10, -2, -329, -86, -94, -164, -28, 81, -59, -213, -75, -132, -173, -223, -221, -210, -66, 0, 105, 24, -64, -53, -153, -130, -103, -93, -44, -129, 17, 0, -320, -57, -19, 11, -154, -87, -29, -207, -126, -154, -320, -252, -277, -244, -206, -101, -75, -52, -82, -90, -114, -117, -69, -45, 5, 11, 10, 38, -170, -190, 12, 24, 36, -27, -118, -247, -193, -177, -239, -182, -149, -182, -95, -64, -38, -61, 69, -31, 35, -38, -32, 35, 99, 122, 115, -41, 6, -160, -14, -13, 35, -64, -223, -134, -86, -133, -58, -41, -83, -116, -78, -29, 44, 2, 3, -7, 51, -46, 58, 143, 231, 159, 132, 36, 49, -30, -10, 19, 53, -29, -98, -2, -110, -108, -77, -85, -25, -61, 42, 49, -15, -15, 0, 43, 76, 113, 103, 89, 174, 131, 121, 44, 40, 118, 19, 0, 7, -8, 75, 92, -30, -121, -180, -26, 31, 75, 89, -27, 29, 107, 57, 132, 130, 118, 104, 79, 53, 27, 117, -31, -1, 134, -13, 19, 9, -4, 58, -84, -51, -192, -177, -74, 72, 100, 196, 82, 94, 92, 47, 107, 11, 115, 147, 92, 65, 47, 55, -122, -134, -83, -27, -25, 10, 56, 69, -16, -284, -225, -208, -251, -73, 32, 59, -61, 60, 77, 156, 41, 49, 27, -93, -32, 65, 147, 240, 107, -69, -47, 5, -31, -23, -14, 37, -119, -163, -309, -403, -343, -255, -267, -147, -83, -203, -320, -181, -227, -266, -349, -372, -213, -152, -153, -29, -110, -7, 21, -31, -28, -9, -29, 31, -41, -91, -118, -108, -104, -145, -231, -75, -87, -131, -268, -87, -169, -239, -191, -151, 10, -131, -115, -95, 27, -18, -13, 8, 
17, 17, 27, 5, 17, 23, -13, -33, 10, 0, -35, -22, -101, -69, -77, -35, 25, 13, 17, 17, -22, -18, 4, -21, 22, -20, 34, 25, 24, -27, 11, -29, -15, -16, -82, -100, -98, -120, -97, 25, 2, 43, 16, -78, 45, 1, -139, -193, -187, -77, -116, -115, -5, -35, 31, -22, 3, 27, 11, 101, 75, -110, -104, -133, -301, -364, -267, -251, -214, -262, -278, -359, -230, -119, -57, -79, -119, -108, -65, -127, -151, -68, -13, -8, -8, -11, -111, 56, 77, -142, -269, -160, -164, -195, -79, -161, -170, -115, -104, -78, -111, -5, -10, 15, 120, 165, 73, 49, -37, 53, 105, 35, -9, 17, -149, -81, -132, -260, -202, -11, -87, -35, -74, -23, -61, -3, -14, 104, 48, 114, 132, 82, 133, 161, 176, 188, 276, 236, 82, -138, -17, -2, -233, -54, -151, -249, -140, -61, -54, -19, -20, 16, -16, 40, 117, 88, 134, 142, 122, 80, 157, 124, 179, 177, 113, 136, -11, -94, -31, 54, 22, -173, -107, 58, 10, 12, -20, -55, -24, -83, -50, 1, 67, -14, 25, 82, -35, 44, 19, 25, 168, 204, 146, 133, 69, -86, -23, -28, 3, -190, -193, 212, 47, 6, -18, -7, 44, 26, -59, -30, -84, -3, 21, 114, 116, 67, -58, 24, 69, 197, 213, 204, 49, -18, 128, -126, 72, 23, -132, 85, 33, -31, -43, 43, 15, 24, 52, -4, -24, 51, 198, 165, 137, 81, 45, 28, 54, 173, 322, 318, 149, 53, -64, -177, 26, -66, -112, -56, -87, -83, -9, -14, 50, 47, 21, 68, -55, 1, 140, 160, 106, 94, 74, 47, 4, 141, 328, 277, 48, -63, -50, -60, -18, -101, -61, -80, -97, -68, -32, 102, 15, 100, 115, 71, -7, 29, 20, 112, 71, 12, 10, -21, -57, 43, 335, 168, 121, -66, -18, 5, -213, -121, -131, -130, -26, 19, -6, 40, 84, 115, 155, 118, -30, -44, -60, 5, -80, -21, -107, -69, -123, -21, 205, 154, 228, -88, -45, -58, -104, -100, -178, -83, 108, 75, -16, 47, 115, 218, 286, 168, -49, -132, -118, -48, -13, -26, -71, -48, -78, -109, 52, 14, 40, -177, -5, 9, -126, -26, -45, 58, 85, 134, 107, 94, 143, 248, 306, 28, -99, -132, -160, -78, 20, 8, -9, -35, 22, 48, -23, -99, -101, -175, 104, 62, -172, -102, 80, 134, 65, 166, 90, 101, 132, 206, 185, 24, -93, -103, -155, -57, -59, -76, 14, 30, 82, 56, 41, -122, -310, -150, 56, 53, 82, -44, 108, 102, 7, 130, 128, 162, 153, 135, 90, -83, -107, -97, -99, -98, -41, 7, 37, 53, 95, 138, 82, -87, -78, -142, -49, 71, -10, 14, -15, 39, -19, 70, 112, 102, 77, 95, 11, -90, -64, -58, -78, -26, -51, -17, 65, 87, 60, 121, 14, -215, -212, -90, 1, 38, 37, 18, 104, 130, 68, 104, 67, 137, 87, 52, -95, -162, -79, -64, -3, 32, -2, 26, 58, 105, 59, 152, 0, -388, -311, 43, -158, -160, 3, -28, 93, 127, 173, 110, 136, 104, 48, 22, -7, -105, -131, 1, -17, -60, -14, 41, 42, 47, 88, 82, -48, -391, -326, -208, -64, -46, 50, 75, 66, 199, 169, 58, 123, 74, 73, 23, -72, -90, -45, 1, -19, -4, 43, -3, 114, 150, 84, 47, -16, -343, -237, -130, -23, 90, 127, -7, 62, 143, 88, 0, 65, 83, 46, 84, 40, 1, -60, 59, 50, 32, 8, 0, 64, 81, 88, -20, -244, -217, -155, 6, -131, -77, -39, -67, 23, -34, -12, -9, -45, -38, -18, 59, 19, 45, 12, 97, 47, 5, 18, -19, 43, 50, 114, -9, -172, -58, 89, -10, -103, -137, -30, -78, -138, -165, -40, 8, -16, -46, 24, 90, 102, 134, 132, 150, 111, 96, 28, 17, -78, 1, 76, 45, -89, -31, 122, 25, 35, -23, 111, 104, -92, -140, -92, -26, 106, 144, 191, 250, 182, 197, 246, 206, 207, 96, 59, -11, -53, -55, -82, -33, -120, 26, 67, -22, -1, 18, -52, 206, 13, -46, -60, -62, 67, 156, 155, 216, 271, 287, 265, 127, 176, -3, 53, -1, -63, -160, -8, -58, -56, -148, -100, 20, -17, 6, 88, 71, -19, -180, -193, -186, -198, -101, -5, -75, -180, -63, -158, -4, -54, -86, -90, -163, -220, -99, 46, 129, 72, -34, -13, -20, 0, -9, -2, -80, 12, -93, -215, -359, -347, -430, -328, -171, -123, -174, -347, -201, -263, -281, -301, -310, -230, -223, -193, -116, -69, -52, 35, 33, 33, 3, 32, -7, -57, -84, -144, -107, -99, -138, -178, -31, -11, -153, -272, -201, -156, -217, -234, -271, -158, -153, -206, -130, 29, -28, 19, -2, 
34, -11, 15, -27, -26, 16, -32, 9, 12, 35, -32, -7, -36, -34, 60, 81, -7, -16, 19, 22, 30, 22, -1, -8, 25, 16, 17, 21, 28, -31, 18, 23, -68, -158, -148, -168, -68, 10, 29, -97, -118, -6, -3, -76, 8, -7, -37, -106, -94, -114, -142, -126, 2, -12, 19, 16, -9, 1, 25, -109, -142, 5, -45, -19, 143, 219, 193, 187, 99, -30, 105, 27, -18, 21, -30, -34, 49, 140, 48, 48, 137, 110, -8, 24, -28, -17, -3, -74, -95, 72, 14, 62, 11, 64, 96, 113, -6, -18, -32, -84, -66, -76, -91, -106, -188, -115, -19, 22, 72, 39, 30, -34, -23, -56, -87, -104, 8, 82, 183, 63, 57, 12, 32, 53, 12, -48, -22, -79, -19, -2, -22, -71, -50, -120, -72, -81, -142, -41, -136, 63, 4, 0, 76, -31, 85, 10, 50, 60, 47, -1, -13, -64, -53, -105, 5, 22, 116, 71, 29, -7, -40, -86, -37, 10, -96, -22, -84, 49, 0, -132, 23, 25, 175, 62, 23, 31, -19, -25, -95, -146, -111, -118, -131, -41, 24, -50, -66, -55, -95, -25, -15, -87, -165, -79, -63, -10, 14, -81, 112, 101, 216, 91, 16, -86, -71, -52, -68, -57, -127, -59, -64, -132, -88, -125, -97, -48, -62, 27, -25, -156, -113, 7, 114, 6, -117, -7, 102, 44, 147, 50, -48, -97, -96, -61, 17, 9, -79, -84, -87, -121, -139, -118, -114, -53, -2, -22, -77, -143, -193, -115, -68, -94, -13, 103, 56, 36, 63, 104, -52, -89, -82, 42, 34, -7, -33, 41, -60, -107, -71, -32, -23, -12, -29, -67, -72, -152, -344, -301, -224, 0, 21, -21, -15, 23, -24, 91, -9, -80, -31, 51, 74, -7, -1, -54, -210, -217, -56, 25, 44, 5, -29, -27, -64, -160, -335, -227, -255, -106, 11, -38, 10, -51, -49, 20, -54, -78, 16, 83, 18, -93, -53, -256, -305, -235, -64, -47, 27, 85, 56, 81, -16, -222, -326, -231, -349, -134, 62, 117, 123, -157, -115, -111, -112, -96, 50, 29, -57, -50, -19, -148, -214, -237, -113, -42, -3, 53, 62, 83, 38, -135, -81, -61, -144, 79, 13, 92, 72, -166, -199, -27, -42, -57, 67, 53, 51, 22, 0, -97, -176, -139, -46, -18, 21, 89, 91, 85, 32, 53, 173, 134, 142, 168, -97, -50, 7, 39, -65, 31, 65, 98, 142, 103, 98, 69, -12, -70, -67, -34, 103, 131, 109, 151, 144, 68, 85, 36, 76, 221, 368, 100, -97, -68, 65, 128, -32, 108, 176, 134, 193, 131, 62, 76, 6, 16, 26, 96, 182, 239, 171, 184, 122, 62, 41, -2, 101, 230, 310, 140, 19, -103, -73, 37, -26, 77, 189, 194, 141, 125, 31, 78, 59, 45, 99, 220, 313, 382, 269, 210, 159, 235, 153, 90, 75, 384, 368, 103, 30, -111, 47, 63, 43, 84, 131, 157, 161, 59, 38, 33, 35, 101, 195, 231, 278, 290, 276, 181, 106, 219, 131, 16, 76, 350, 259, -3, -174, -12, -49, 78, 107, 40, 97, 218, 108, -78, -84, -25, 25, 125, 125, 180, 305, 269, 167, 129, 72, 94, 84, 67, 82, 283, 182, 173, -74, -94, -85, 102, 105, -15, 70, 150, 2, -109, -108, -31, 0, 47, 115, 203, 235, 162, 28, -3, -25, 43, 67, 47, 33, 105, 192, 57, -11, -85, 119, 188, 156, 21, -13, 36, -75, -75, -42, -35, -51, -58, 56, 55, 89, -18, -27, -61, -6, 78, 4, 10, 81, 39, 124, -10, -32, 46, 78, 87, 43, -3, -106, -101, -2, -15, -9, -46, -25, 11, -49, -79, -25, -61, -75, -3, -52, 17, 11, 94, 0, -26, -56, -21, -64, -85, 40, 52, -26, -43, -96, -27, 27, 16, -10, 12, -44, -106, -117, -111, -141, -164, -133, -71, 21, 93, 94, 49, 27, -42, -129, 7, 29, 30, -116, -177, -118, -133, -120, 7, -17, 35, -43, -13, -48, -123, -134, -171, -223, -163, -84, 4, 21, 87, 86, 47, 28, -34, -143, -32, -18, 30, -132, -232, -274, -198, -148, -98, -80, -63, -130, -117, -169, -225, -200, -232, -165, -128, -96, -128, -96, 63, 22, 29, 130, 184, 86, 30, -32, -15, -69, -39, -12, -61, 4, -108, -178, -202, -154, -137, -105, -110, -101, -68, -153, -212, -279, -343, -192, -197, -270, -255, -229, 90, 32, 32, -23, -8, -23, -20, 7, 19, 0, -73, -56, -141, -155, -201, -174, -185, -182, -69, -183, -176, -260, -252, -209, -85, -126, 14, 67, 9, 9, -33, -30, 2, 34, 32, 86, 46, -37, -9, -7, -26, -68, -97, -64, 17, -53, -5, 30, 67, -6, 13, 27, 121, 42, 77, 12, 32, -18, -31, 
7, 7, 9, -22, -25, 18, 10, 30, -32, -26, -7, 5, -8, 0, 25, 22, -24, -26, 18, 27, -23, -30, -17, -12, -31, -17, 8, 27, 10, 23, 0, 29, -48, -59, -42, -62, 11, -96, -78, -123, -176, -84, 70, -129, -132, -188, -94, -142, -190, -120, -114, -115, 32, 21, -2, 6, -33, 14, -21, -119, -139, -51, -10, -151, -91, -116, -248, -313, -330, -196, -198, -269, -274, -139, -84, -250, -180, -145, -186, -246, -99, -56, 13, 22, -1, -4, 77, -165, -122, -169, -173, -209, -377, -368, -413, -387, -496, -547, -533, -363, -236, -142, -69, -90, -133, -122, -96, -125, -168, 11, -61, 22, -17, -19, 92, 31, -30, -143, -178, -171, -226, -212, -245, -79, -52, -79, -102, -127, -103, -103, -156, -120, -32, -40, -71, -12, 135, 83, 87, -45, -30, -9, 83, 21, -90, -158, -193, -211, -269, -147, -88, 89, 169, 104, 5, 34, -59, -95, -135, -102, 56, 27, -15, -66, -95, 28, -18, -19, 22, -91, -117, -124, -112, -121, -213, -194, -83, -65, 4, 100, 139, 88, 70, 53, 92, 52, 17, 72, 67, -29, -8, 84, 9, 10, -13, -41, -3, -185, -119, -152, -176, -92, -137, -122, 30, -52, 2, -12, 46, 76, 43, 119, 132, 30, 28, 63, 51, 60, 27, 102, 11, 41, -8, -38, -74, -180, -62, -74, -120, 12, 51, 15, 35, -15, -31, -53, 17, 40, -11, 43, 96, 26, 112, 84, 9, 42, -2, 22, 209, 195, 190, 145, -58, -109, -157, -102, -200, -28, 87, 9, -18, -32, -25, 30, 36, 34, 14, 57, 49, 39, 55, 63, 43, -1, 58, 107, 180, 171, 245, -103, -38, -56, -250, -214, -11, -36, 54, 18, 82, 65, 86, 60, 90, -48, -4, -12, -25, -62, 17, 87, -37, -10, 52, 109, 137, 135, 132, 10, -40, -222, -261, -161, 74, 111, 128, 157, 197, 155, 148, 78, 61, -24, 79, 117, 36, -4, -29, -47, -30, -65, 41, 142, 207, 181, 259, 1, -89, -71, -215, 12, 180, 129, 147, 211, 156, 150, 70, 32, -1, 45, 93, 131, 42, 39, -47, 53, 83, 96, 86, 176, 136, 128, 78, -121, 106, -35, -186, 17, 160, 151, 124, 174, 137, 90, 2, 57, 66, 89, 71, 107, 100, 78, -3, 82, 151, 122, 102, -5, -110, 52, 16, -76, -79, 5, -237, 33, 211, 103, 94, 92, 130, 84, 2, 32, 55, 68, 123, 26, 112, 152, 9, -22, 52, 29, -43, -82, -135, 0, -179, -114, -90, -50, -69, 112, 64, -15, 65, 116, 137, 81, 54, 25, 62, 43, 46, 48, 96, 134, -18, -92, -64, -77, -72, -140, -304, -149, -27, -110, -16, -17, -34, -16, -71, -62, 59, 93, 106, 65, 23, -15, 44, 52, 101, 89, 134, 87, -96, -168, -147, -109, -96, -135, -195, -141, -106, -71, -35, -30, 26, -69, -238, -117, 43, 58, 72, 43, -11, -19, 41, 117, 100, 114, 71, -64, -101, -178, -126, -84, -138, -160, -113, -274, -135, -156, -57, -67, 14, -144, -334, -100, 54, 32, 33, -23, -55, -2, -9, 38, 55, 23, -71, -116, -102, -132, -82, -127, -123, -135, -118, -221, -2, -48, 85, -181, -45, -235, -278, -103, -43, -49, -69, -144, -154, -180, -199, -74, -54, -25, 49, -23, -54, -115, -82, -133, -135, -54, -59, 3, 3, 69, -24, -135, -76, -335, -282, -115, -40, -94, -137, -243, -252, -263, -214, -119, -51, 43, 97, 101, -11, -95, -74, -78, -28, 34, 10, 63, -47, -34, 5, -149, -112, -391, -192, 32, -8, -5, -102, -95, -169, -193, -159, -114, -68, 55, 40, -21, -31, -71, 10, 1, 1, -12, 25, 46, -167, -12, 44, 25, -130, -189, -86, 3, 44, -6, -45, -17, -48, 17, 4, 17, 67, 0, -37, -5, 29, -43, 31, 73, 36, 119, 105, 57, 26, -9, 14, 22, -171, -173, -200, -150, -125, -50, 93, 1, 35, 39, 113, 107, 32, 18, 89, 64, 33, 77, 157, 164, 169, 222, 34, 0, -25, 21, -16, 25, -135, -189, -362, -219, -148, -95, 20, -8, 88, 80, 33, 17, -57, 25, -3, -59, 74, 140, 182, 134, 122, 222, -100, -109, -19, 31, -13, -10, 65, 13, -182, -88, -99, -133, -105, -73, 8, -40, -59, -42, 100, 56, 14, 91, 129, 70, 174, 138, 27, 7, -82, -68, -73, -19, -27, 29, -13, 72, 180, 181, 218, 105, 91, 61, 90, 51, 54, 17, 108, -20, 53, 56, 61, -67, 43, 113, 22, 121, 78, -62, -33, -35, 16, 16, -31, 34, -95, -167, 2, 36, -13, -4, -97, 54, 46, -141, 1, 52, -1, -86, 4, 25, 87, -1, -39, -79, -2, -18, -14, 18, 
-26, 20, 28, -13, -23, -13, 26, 6, 17, 24, -3, -2, -10, -9, -31, -46, -4, -17, -32, 3, 34, 8, -21, 21, 24, 0, 20, -17, 32, 13, -8, -10, -17, 31, -5, 47, 57, 60, 123, 164, 100, -101, -14, 37, -36, -42, 168, 243, 257, 170, 165, -28, 4, 6, 22, 12, -30, 11, 40, 23, 108, -48, 21, 96, 58, 151, 31, -142, -175, -261, -207, -158, -107, -31, 38, 198, 232, 221, 245, 253, 65, 33, -32, 35, -11, 9, 76, 157, 155, 78, -30, 20, -83, -121, -149, -191, -206, -324, -265, -139, -80, -51, -9, 82, 168, -19, -68, 43, 97, -17, 55, -5, -12, 48, 109, 75, 161, 88, -51, -101, -165, -304, -299, -183, -196, -126, -112, -63, -106, -94, -46, 103, 65, 164, 153, 121, -43, -174, -71, 47, 6, -29, 184, 116, 126, -73, -135, -245, -329, -198, -199, -266, -202, -151, -101, -52, -40, 40, 13, 151, 127, 183, 128, 235, 157, -208, 81, 77, -16, 99, 24, -39, 25, -167, -196, -256, -181, -123, -108, -214, -172, -90, -96, -59, -59, -27, 56, 91, 149, 64, 135, 222, 327, -10, 65, 53, -15, 123, -24, -105, 22, -59, -249, -154, -152, -144, -171, -275, -236, -102, 77, 32, 6, 97, 89, 52, 68, -64, 35, 82, 1, -39, 142, 48, 90, -103, 32, 26, 39, -33, -116, -94, -158, -128, -157, -266, -119, 0, 142, 132, 122, 138, 129, 41, 56, 23, 16, -116, -23, -16, 51, -32, -119, -52, 19, 14, 137, -43, -32, -3, -68, -63, -163, -283, -246, -7, 113, 220, 233, 177, 104, 53, 20, 39, 25, -22, 100, 74, 8, -81, -96, 53, 17, 30, 36, -90, -124, -64, -33, -115, -223, -344, -267, 128, 197, 216, 220, 164, 102, 50, -41, -52, 64, 105, 329, 164, 68, -138, -85, 58, 16, 17, 35, -4, -52, -73, -159, -241, -312, -322, -45, 255, 307, 239, 118, 142, 58, -75, -93, -93, -9, 102, 179, 39, 162, 68, -66, -13, -3, -12, 14, 19, 40, -66, -92, -87, -137, -111, 223, 335, 268, 88, 36, 41, 41, -122, -239, -233, -178, 14, 9, -22, -5, -2, 126, 24, -27, 29, -9, 110, 27, -24, -41, -21, -41, -2, 230, 194, 86, -4, 16, 27, -13, -172, -206, -236, -263, -12, -165, -141, -15, -71, 86, 99, -37, 144, -20, 95, -5, -57, 41, 61, -19, 17, 168, 34, 0, -31, -28, -62, -100, -132, -156, -190, -227, -96, -88, -218, -213, -19, 22, 47, 125, -24, 111, 40, 8, 9, 80, 22, -113, 0, 113, 17, -21, -140, -48, -79, -52, -40, -58, -166, -153, -6, -46, -172, -76, -62, -103, 79, 16, -22, 106, 157, -42, -77, -73, -75, -134, 13, 25, 96, 2, -81, -70, 20, 137, 62, -26, -208, -209, -171, -42, -46, -136, 27, 28, 88, -2, 45, 176, 173, -8, -44, -123, -203, -113, -72, -33, 58, 7, -71, 108, 195, 147, 73, -145, -208, -279, -195, -167, -153, 18, 93, -144, 54, 45, 59, 136, 134, 65, -17, -91, -132, -129, -53, 34, 75, 80, 132, 221, 265, 134, -81, -291, -343, -381, -358, -297, -93, 6, 41, 39, 1, 37, 80, 65, 82, 54, 0, -17, -40, -53, 53, 46, 140, 162, 227, 260, 214, 135, -193, -378, -350, -357, -293, -92, 6, -34, 74, 24, 103, -43, 81, 39, 28, 95, 37, 77, 45, 33, 11, 98, 141, 224, 268, 193, 137, -45, -338, -394, -360, -277, -277, -103, -46, 9, 26, 101, 3, -7, 83, 14, 52, 97, 132, 114, -44, 31, -3, 65, 62, 203, 222, 139, -56, -210, -390, -367, -274, -269, -232, -22, 12, 12, 15, 74, 140, -8, 43, -39, 91, 19, 5, -46, -33, -15, 39, -1, 42, 129, 172, 17, -94, -274, -299, -327, -239, -121, -200, -41, 15, 73, 8, 25, 33, 177, 141, 79, 141, 45, -1, 27, 106, 100, 147, 71, 91, 74, 64, -148, -198, -200, -297, -227, -180, -143, -222, 32, 56, 162, -15, -18, 22, 124, 150, 26, 37, 75, 10, 72, 89, 21, -40, -48, -53, -70, -168, -265, -158, -58, -50, -25, 103, -3, -97, -114, 101, 108, 11, -29, -20, 98, -126, -173, -174, -75, -65, -47, -45, -254, -315, -202, -242, -447, -538, -495, -222, -85, -99, 25, 15, -44, -89, 19, -33, 11, 7, -10, -12, 14, -24, -138, -218, -253, -268, -321, -417, -324, -232, -372, -505, -628, -311, -354, -466, -316, -199, -150, -70, -97, -89, -2, -18, -25, 2, 11, -22, -31, 8, -12, -33, 94, 40, -62, -108, -188, -188, -188, -192, -249, -136, -103, -178, -180, -68, -89, 29, 35, 20, 31, 17, -15, 13, 
-22, 24, -25, 22, 8, 32, -2, 13, 33, 21, -17, 26, 38, 57, -34, -8, 17, 21, 15, 9, 12, -16, -11, -18, -23, 10, 14, 10, 34, -1, 3, -8, 57, 110, 93, 149, 95, 102, 125, 63, 60, 42, 73, -8, -145, -23, 132, 187, 94, 55, 50, 84, 33, 20, -7, 21, -2, 19, -23, 28, 52, 83, 157, 158, 82, 36, 94, 141, 138, 275, 264, 276, 180, 33, 2, 68, 90, 175, 186, 131, 45, -15, 24, 8, -29, -28, 73, 102, 43, 189, 261, 193, 26, -50, -8, 35, 56, 48, 85, 54, 54, 13, -41, 10, -15, 52, 59, 194, 132, -83, 27, -32, -33, -10, 118, 193, 264, 305, 174, 3, 132, -3, 12, -52, -22, 24, -68, -128, -109, -119, -178, -62, -78, -46, 33, 4, -181, -158, -166, -22, 25, -23, 175, 113, 275, 186, 185, 96, 7, 7, -34, -67, 18, -29, 13, 64, -27, -154, -180, -196, -311, -205, -157, -136, -175, -290, -231, -96, 20, -6, 75, 144, 220, 26, 59, 1, -22, -2, 22, -3, -68, -55, 10, 38, 89, -74, -137, -314, -407, -318, -253, -221, -203, -223, -47, -46, 28, 153, 126, 268, 295, -11, 6, 20, -106, -1, -78, -100, -142, -36, 32, 42, 62, 85, -112, -310, -426, -469, -441, -304, -251, -154, -29, -30, -13, 181, 112, 155, 302, -6, -84, 18, -105, -143, -155, -277, -146, -1, 101, 240, 193, 186, -93, -358, -592, -728, -545, -381, -205, -191, -179, -120, 38, 77, 62, 25, 130, -44, -63, -104, -202, -200, -363, -291, -88, 159, 398, 476, 371, 133, -199, -439, -642, -643, -371, -256, -271, -161, -105, 82, 63, 95, 13, -20, -18, -112, -121, -169, -293, -284, -199, -56, -28, 288, 415, 445, 317, -36, -344, -537, -542, -351, -167, -240, -331, -169, -67, 26, 33, 114, 96, 92, 17, -107, -212, -175, -181, -19, 46, 116, 190, 355, 410, 322, 30, -318, -483, -471, -254, -57, 15, -168, -501, -423, -270, 55, 9, 52, 202, 101, -72, -37, -91, -26, 57, 149, 143, 192, 222, 292, 282, 209, -7, -331, -334, -226, -95, 181, 153, -15, -163, -253, -307, 122, 75, 90, 176, 149, -52, -7, 14, -7, 89, 122, 161, 169, 173, 197, 170, 116, 64, -163, -50, 17, 180, 265, 156, 123, -138, -172, -185, 43, -82, 90, 135, 164, 0, -52, -75, -55, 91, 160, 103, 98, 63, 139, 182, 73, -2, -126, 2, 179, 105, 168, 155, 105, -100, -166, -241, -12, -135, 11, 129, 62, -3, -107, -31, 0, 128, 130, 93, 143, 43, 104, 169, 37, 35, 23, 37, 112, 71, 116, 154, 107, -34, -153, -121, 34, 4, 33, 78, -48, -161, -144, -17, 146, 169, 246, 117, 90, 31, 129, 128, 26, 7, -43, 56, 50, 10, 66, 58, 32, 102, -59, -98, 9, 34, 23, 1, -107, -182, -225, -154, -30, 28, 73, 78, -59, 34, 197, 177, -4, 15, -1, -25, -5, -19, 121, 124, 27, 17, 96, 21, -158, 107, 26, 52, -34, -66, -183, -176, -178, -142, -53, -86, -117, 100, 172, 41, 14, -22, 17, 87, 29, -8, 107, 19, -35, -174, 95, 115, 59, 63, 54, -11, -73, -81, -131, -109, -91, -205, -107, -77, -38, 29, 92, 26, 56, 86, 11, 87, 49, 36, 1, -61, -89, -139, 134, 80, 81, -12, -83, -70, -93, -221, -181, -76, -67, -186, -71, -59, -47, -17, -17, 72, 96, 35, 44, 99, 9, 6, -39, -133, -101, 2, 27, 32, 50, 94, 67, 126, -114, -216, -223, -170, -135, -85, -30, -52, -56, -90, -112, -16, 40, 42, -5, 16, -34, -86, -80, -142, -74, 18, 57, -85, 28, 125, 79, 106, 142, -75, -117, -208, -150, -53, -2, 13, -46, -96, -78, -55, 24, 31, -22, 48, -18, -4, -8, -82, -165, -11, 22, 73, 34, 31, -1, -30, 107, 45, -130, -167, -56, -78, 37, 31, 28, 10, 4, -11, 8, 5, 113, 98, 73, 11, -44, -121, -256, -29, 81, 155, -8, 34, 9, 59, 138, 29, -119, -25, -31, -42, 4, 4, 70, 9, -18, 89, -16, 63, 100, 51, -8, -13, 145, -5, -161, -80, 110, 93, 10, 10, -24, 5, 22, 123, 53, 177, 5, -46, -97, -131, -142, -139, -116, -79, -222, -201, -183, -92, -185, -82, -87, 27, -30, -115, 4, 15, -35, -2, 20, -21, -29, -3, -36, -69, -94, -176, -276, -213, -198, -440, -365, -398, -204, -391, -439, -302, -158, -141, -179, -91, -76, -19, -24, 24, -12, -3, 23, 34, 9, 15, 7, -112, -64, -92, -100, -67, -66, -162, -230, -369, -204, -102, -210, -208, -105, 95, 84, 95, 5, 20, -21, 26, -2, 
7, -29, 18, -12, 0, 14, 1, 16, 24, 3, -13, -12, 5, -55, 41, 86, -5, -5, 24, 15, 19, 31, -3, 22, -19, -5, -11, -2, -30, 20, -19, 5, -20, -44, -43, -55, -52, -81, -61, -186, -122, -28, 156, 192, 177, -27, -87, -61, -184, -86, -58, -26, 2, 10, -13, 35, -26, -26, -27, -11, -51, -85, -24, -63, -84, -49, -187, -206, -11, 111, 63, 196, 128, 12, -70, -113, -126, -186, -141, -114, -13, -1, -34, -14, -17, -11, 90, -109, -173, 64, -9, -6, 3, 36, -36, -39, 38, 80, 33, 15, 52, -18, -121, -200, -257, -291, -134, -156, -137, -34, -88, -23, -13, 35, 153, -5, 31, -81, -100, -14, 12, -75, -16, -33, 112, 223, 186, 224, 178, 1, 24, 54, -60, -177, -140, -246, -185, -56, 50, -13, -26, 19, 188, -92, -28, 9, 63, -105, -144, -207, -154, -76, -34, 106, 151, 262, 129, 50, 41, 28, 7, 1, -104, -183, -77, 37, -7, 13, 6, 80, -107, -52, -112, -209, -115, -214, -148, -105, -39, -75, -48, 43, 82, 134, 218, 184, 125, 26, 32, 36, -146, -110, -230, 104, 76, 41, -48, -48, -202, -176, 33, -112, -106, -202, -114, -99, -94, -160, -14, -46, 18, 104, 162, 80, 127, 171, 82, -16, -94, -229, -109, -36, 35, 44, 8, -112, -139, -117, -55, -119, -30, -88, -21, -4, -21, -117, -110, -102, -40, 44, 93, 142, 268, 236, 78, 43, -131, -359, -281, -95, 80, 25, -53, -146, -38, 4, -14, -92, 87, 78, 52, 28, -3, -113, -174, -100, -113, 81, 150, 300, 363, 299, 154, -1, -142, -348, -371, -149, -9, 48, -65, -128, -236, 0, 8, 4, 125, 48, 62, 13, 2, -67, -189, -259, -105, 69, 215, 310, 383, 323, 191, -29, -172, -415, -525, -203, -30, 117, -36, -112, -245, -48, 56, 73, -12, 42, 55, 24, -3, -50, -189, -220, 43, 137, 188, 345, 341, 394, 300, 4, -189, -450, -488, -238, -2, 73, -81, -165, -221, -68, 103, 58, -14, -16, -1, 88, 3, -84, -275, -108, 156, 164, 244, 337, 347, 300, 108, -47, -217, -313, -297, -154, -57, -31, 97, -119, -279, -28, 65, -87, -85, -24, 116, 39, -52, -116, -142, 14, 198, 213, 227, 305, 227, 77, -65, -201, -313, -372, -378, -96, -75, 79, -31, 15, -231, -7, -37, -148, -106, -18, 7, -53, -44, -40, -14, 79, 213, 203, 216, 190, 7, -170, -318, -259, -257, -350, -291, -4, 164, 65, -20, 106, -24, 16, 30, -119, -149, -73, -12, -80, -58, -15, 62, 135, 129, 126, 142, -3, -136, -258, -374, -305, -147, -200, -251, -73, 0, 84, 32, 136, 210, 63, 130, -126, -200, -48, 6, 10, 62, 59, 100, 72, 50, 13, 44, -88, -207, -310, -278, -218, -126, -93, -85, -99, 80, 98, 8, 107, 93, 13, 15, -170, -252, -95, 0, 19, 81, -2, 95, 92, 7, -73, -80, -152, -202, -179, -274, -119, -54, 8, -55, -72, 33, 122, 75, 38, 136, 101, -95, -201, -197, -188, -48, 28, 81, -87, -161, -62, -5, -60, -48, -62, -100, -40, -84, -22, 46, 21, 48, 2, 58, 119, 56, -64, -99, 72, -102, -173, -139, -10, -9, 60, 33, -149, -119, -37, -14, -46, 46, -29, -17, 19, -51, 28, 84, 116, 55, 119, 104, 154, -10, 85, -71, 93, 27, -178, -37, 133, 32, 13, 18, -60, -49, -26, 40, -14, 57, 54, 91, 114, 56, 39, 12, 134, 152, 79, 26, 29, 124, 93, 174, 229, 27, 25, 114, 29, 79, 0, 55, -32, -63, -11, 18, 50, 43, 23, 47, 83, 68, 83, 24, -14, 75, 27, -78, 30, 124, 108, 80, 150, 25, 163, 157, 54, 70, 12, -43, -23, -47, -18, 66, 54, -24, -30, 22, -35, -2, 41, 33, 35, -2, -12, -67, -24, -6, -26, 126, 125, -65, -18, 64, 104, 69, -19, -51, 23, 36, 46, 12, -1, -30, 8, 40, 5, -23, 51, 133, 19, 98, 17, 61, 28, -6, 2, 8, 168, 87, -2, -25, -18, -57, -117, -71, -56, -61, -44, -139, -42, -53, 11, 28, 2, 6, 10, 71, 132, 49, 110, -11, 4, -6, -9, 145, -151, -140, 79, 88, 1, 48, 8, -41, -89, 71, 70, 38, -47, -5, 25, 30, 52, 148, 10, -116, -21, -59, 11, -29, 24, -27, -31, -8, 39, 185, 251, 272, 271, 230, 283, 233, 126, 61, 24, 180, 17, 110, 80, 100, 74, 170, 213, 193, 142, 112, -67, 1, -5, -28, 22, 5, 21, -111, -131, 16, 7, 40, 70, -75, 18, 65, -79, 155, 102, 11, -37, 88, 55, 38, 68, 32, -31, -24, -32, -29, 25, 
