{-530, 160, 182, 263, -402, 47, 15, -320, -186, -305, -986, 107, 109, -559, 127, 396, -207, 228, 217, -589, 273, -151, -351, 77, -285, 49, 51, -362, -86, -287, -145, 318, 141, 68, 184, 202, -407, 219, -430, -152, 
243, -5, -297, -145, 151, -494, -47, -40, 113, 30, 483, 141, -84, 227, -600, -401, 233, -480, -182, -454, -340, -244, 107, 240, 391, 347, -393, -252, 105, -148, 170, -16, 266, 136, 178, -350, 509, 654, 60, -365, 
361, 415, 161, -52, 298, 136, -132, 56, -11, 83, -469, 69, 338, 397, 114, 437, -644, -265, -36, -396, -184, 410, -114, -663, 90, 124, -19, -77, -120, -408, 282, 255, -153, 10, 256, -302, -93, -213, -381, -140, 
183, 352, 220, -449, -561, 8, 126, 154, 128, 104, 247, -154, 168, -262, -136, 198, -525, -214, 215, -164, -137, -239, -104, 246, 192, 163, -444, 341, -17, -23, 108, -143, 356, -402, -227, -206, -259, -455, 288, 168, 
-32, 24, -234, 166, -82, -258, -84, -165, -181, 20, -164, -407, -434, -436, 32, -877, 332, 25, -527, 316, 85, 208, 153, -219, 218, -88, -48, 179, 11, 172, -636, 42, -677, 134, -11, -57, 589, 58, 108, 172, 
-63, -476, 237, 359, 0, 129, -72, 28, 15, 37, 580, 109, -631, 440, 161, 155, -283, -294, -77, 309, 130, -382, 9, 303, -1125, -887, 125, 28, -8, 224, 213, -318, 39, -586, 299, 148, -131, 65, 110, -225, 
127, -618, 79, -539, 363, -588, -76, 217, -203, -468, -680, 169, -335, -115, 144, -235, -311, 49, -492, -411, -136, 153, -542, 254, 153, -471, 261, -425, -5, 314, -264, 87, -391, 252, 152, -45, -180, 241, -390, 220, 
240, 480, -483, 304, -328, 241, -107, -177, -317, 20, -729, -419, 365, 437, 154, 42, 161, 213, 213, -180, -350, -130, -110, -369, 339, -99, -220, 213, -20, -244, 117, -359, 425, 214, -580, -241, 528, 475, 174, -91, 
-38, -389, -15, -717, 131, -413, -146, 266, 228, 199, -747, 88, -212, -349, -4, -246, -162, -60, 163, 190, 33, -345, 232, -110, -300, 93, -3, -217, -148, -127, 235, 163, -353, -66, -494, 330, -328, -318, 162, 200, 
-801, -223, -262, 277, 206, 251, 32, -228, 244, 4, 354, -79, 257, -719, 251, -386, 379, 140, 292, -42, -244, 30, 261, -443, -370, 254, -332, 105, 145, 289, -350, -184, -110, -14, -293, 31, -583, -386, -79, -41}